{"learner":{"attributes":{"scikit_learn":"{\"_estimator_type\": \"classifier\"}"},"feature_names":["attendance_rate","gpa","financial_aid","failed_courses","extracurricular_activities"],"feature_types":["float","float","int","int","int"],"gradient_booster":{"model":{"cats":{"enc":[],"feature_segments":[],"sorted_idx":[]},"gbtree_model_param":{"num_parallel_tree":"1","num_trees":"100"},"iteration_indptr":[0,1,2,3,4,5,6,7,8,9,10,11,12,13,14,15,16,17,18,19,20,21,22,23,24,25,26,27,28,29,30,31,32,33,34,35,36,37,38,39,40,41,42,43,44,45,46,47,48,49,50,51,52,53,54,55,56,57,58,59,60,61,62,63,64,65,66,67,68,69,70,71,72,73,74,75,76,77,78,79,80,81,82,83,84,85,86,87,88,89,90,91,92,93,94,95,96,97,98,99,100],"tree_info":[0,0,0,0,0,0,0,0,0,0,0,0,0,0,0,0,0,0,0,0,0,0,0,0,0,0,0,0,0,0,0,0,0,0,0,0,0,0,0,0,0,0,0,0,0,0,0,0,0,0,0,0,0,0,0,0,0,0,0,0,0,0,0,0,0,0,0,0,0,0,0,0,0,0,0,0,0,0,0,0,0,0,0,0,0,0,0,0,0,0,0,0,0,0,0,0,0,0,0,0],"trees":[{"base_weights":[4.1481965E-8,1.0935031E0,-1.1422845E0,1.5626274E0,4.749064E-1,-1.2964125E-2,-2.1453042E0,4.8941916E-1,4.7381926E-1,-8.1365484E-1,1.323331E0,-1.0976584E0,1.2064037E0,-6.974936E-1,-1.1498239E0,3.800591E-1,-3.1788716E-1,1.0485013E0,-1.6395305E0,1.5360441E0,3.810062E-1,1.03357494E-1,-1.8313477E0,1.4318633E0,-2.1059757E-1,2.9530844E-1,-1.9713155E0,4.1872814E-1,-7.222474E-2,-3.6224958E-2,-1.86988E0,4.7055238E-1,1.3760345E-1,-4.6809793E-1,3.6364138E-1,-5.541667E-1,8.7754047E-1,-3.0272198E-1,-2.0857298E0,4.7390667E-1,8.0347884E-1,2.962689E-1,-3.207142E-1,-1.348786E-1,-6.466425E-1,-1.348786E-1,-5.910515E-1,4.1529498E-1,2.6741862E-2,-3.1788716E-1,1.7343768E-1,-1.9505595E-1,-6.5470177E-1,4.030486E-1,-1.9505595E-1],"categories":[],"categories_nodes":[],"categories_segments":[],"categories_sizes":[],"default_left":[0,0,0,0,0,0,0,0,0,0,0,0,0,0,0,0,0,0,0,0,0,0,0,0,0,0,0,0,0,0,0,0,0,0,0,0,0,0,0,0,0,0,0,0,0,0,0,0,0,0,0,0,0,0,0],"id":0,"left_children":[1,3,5,7,9,11,13,-1,15,17,19,21,23,-1,25,-1,-1,27,29,31,33,35,37,39,41,-1,43,-1,-1,-1,45,-1,-1,-1,-1,-1,47,49,51,-1,53,-1,-1,-1,-1,-1,-1,-1,-1,-1,-1,-1,-1,-1,-1],"loss_changes":[3.0277484E2,3.5196808E1,1.3426155E2,4.467911E0,6.1039925E1,7.641305E1,8.555969E0,0E0,8.113001E0,3.616091E1,6.120327E0,2.7125591E1,8.992317E0,0E0,2.2238201E1,0E0,0E0,3.689641E0,5.338421E0,2.2359467E-1,1.3977586E1,2.0556238E1,6.7683983E0,9.227295E-1,5.793241E0,0E0,1.466938E0,0E0,0E0,0E0,1.0715294E0,0E0,0E0,0E0,0E0,0E0,3.733891E0,3.2026186E0,8.201599E-1,0E0,5.9988933E0,0E0,0E0,0E0,0E0,0E0,0E0,0E0,0E0,0E0,0E0,0E0,0E0,0E0,0E0],"parents":[2147483647,0,0,1,1,2,2,3,3,4,4,5,5,6,6,8,8,9,9,10,10,11,11,12,12,14,14,17,17,18,18,19,19,20,20,21,21,22,22,23,23,24,24,26,26,30,30,36,36,37,37,38,38,40,40],"right_children":[2,4,6,8,10,12,14,-1,16,18,20,22,24,-1,26,-1,-1,28,30,32,34,36,38,40,42,-1,44,-1,-1,-1,46,-1,-1,-1,-1,-1,48,50,52,-1,54,-1,-1,-1,-1,-1,-1,-1,-1,-1,-1,-1,-1,-1,-1],"split_conditions":[2.6008077E0,7.747644E-1,7.32799E-1,2.4682748E0,2E0,3E0,4E0,4.8941916E-1,6.251215E-1,1.4905716E0,2.3458319E0,3.068395E0,3.801625E0,-6.974936E-1,3.0433536E0,3.800591E-1,-3.1788716E-1,9.383268E-1,7.9495883E-1,9.833274E-1,3E0,1E0,5.4891706E-1,6.6712195E-1,5.645797E-1,2.9530844E-1,7.59419E-1,4.1872814E-1,-7.222474E-2,-3.6224958E-2,1.5553988E0,4.7055238E-1,1.3760345E-1,-4.6809793E-1,3.6364138E-1,-5.541667E-1,6.186134E-1,2E0,3.1140423E0,4.7390667E-1,3.5258007E0,2.962689E-1,-3.207142E-1,-1.348786E-1,-6.466425E-1,-1.348786E-1,-5.910515E-1,4.1529498E-1,2.6741862E-2,-3.1788716E-1,1.7343768E-1,-1.9505595E-1,-6.5470177E-1,4.030486E-1,-1.9505595E-1],"split_indices":[1,0,0,1,3,3,3,0,0,1,1,1,1,0,1,0,0,0,0,0,3,3,0,0,0,0,0,0,0,0,1,0,0,0,0,0,0,3,1,0,1,0,0,0,0,0,0,0,0,0,0,0,0,0,0],"split_type":[0,0,0,0,0,0,0,0,0,0,0,0,0,0,0,0,0,0,0,0,0,0,0,0,0,0,0,0,0,0,0,0,0,0,0,0,0,0,0,0,0,0,0,0,0,0,0,0,0,0,0,0,0,0,0],"sum_hessian":[2.4039601E2,1.2284236E2,1.1755365E2,6.899365E1,5.3848705E1,5.5771873E1,6.1781773E1,6.442613E1,4.567524E0,2.1395245E1,3.245346E1,2.9568708E1,2.6203165E1,5.120435E1,1.0577424E1,3.125148E0,1.442376E0,6.490692E0,1.4904552E1,2.5962769E1,6.490692E0,1.1539008E1,1.8029701E1,2.2597225E1,3.60594E0,2.884752E0,7.6926723E0,5.048316E0,1.442376E0,2.163564E0,1.2740989E1,2.4760788E1,1.20198E0,1.682772E0,4.80792E0,2.884752E0,8.654256E0,2.884752E0,1.5144949E1,1.7068117E1,5.529108E0,1.442376E0,2.163564E0,1.20198E0,6.490692E0,1.20198E0,1.1539008E1,4.80792E0,3.8463361E0,1.442376E0,1.442376E0,1.442376E0,1.3702573E1,4.086732E0,1.442376E0],"tree_param":{"num_deleted":"0","num_feature":"5","num_nodes":"55","size_leaf_vector":"1"}},{"base_weights":[1.9648325E-2,8.916674E-1,-8.0830634E-1,1.1543497E0,5.988248E-2,2.0508315E-1,-1.3624029E0,4.1747037E-1,7.558744E-1,-7.389299E-1,3.6892968E-1,-9.5001024E-1,9.49954E-1,-1.670911E0,-7.316413E-1,-3.33634E-1,1.1425463E0,6.9943315E-1,-1.299882E0,1.328426E-1,-1.5102164E0,1.0883737E0,-2.0274551E-1,-1.6643192E-1,-5.096962E-1,7.7763903E-1,-1.270428E0,9.9292934E-1,-4.973862E-1,4.7799662E-1,3.943253E-1,-1.5701282E-1,3.458358E-1,-1.4795928E0,-5.8583313E-1,-3.701738E-1,9.691304E-1,-1.5745735E-1,-4.8101777E-1,4.1305315E-1,5.6552196E-1,3.8560122E-1,-2.5201836E-1,-1.0218748E-1,-1.5361041E0,3.270941E-1,9.355507E-2,3.355146E-1,-2.1180277E-1,-1.11177884E-1,-4.802525E-1,2.1730529E-1,-3.7482938E-1,3.2640296E-1,8.9695014E-2,-7.324173E-2,3.2534552E-1,2.4436451E-1,-2.0202817E-1,-1.5728925E-1,-4.8000345E-1],"categories":[],"categories_nodes":[],"categories_segments":[],"categories_sizes":[],"default_left":[0,0,0,0,0,0,0,0,0,0,0,0,0,0,0,0,0,0,0,0,0,0,0,0,0,0,0,0,0,0,0,0,0,0,0,0,0,0,0,0,0,0,0,0,0,0,0,0,0,0,0,0,0,0,0,0,0,0,0,0,0],"id":1,"left_children":[1,3,5,7,9,11,13,-1,15,17,-1,19,21,23,25,27,29,31,33,35,37,39,-1,-1,-1,41,43,45,-1,47,-1,-1,-1,49,51,-1,53,-1,-1,-1,55,-1,-1,57,59,-1,-1,-1,-1,-1,-1,-1,-1,-1,-1,-1,-1,-1,-1,-1,-1],"loss_changes":[1.6399178E2,2.4099579E1,6.571009E1,6.889374E0,2.6704374E1,3.7090763E1,1.3462631E1,0E0,1.4510595E1,1.4647995E1,0E0,1.0506754E1,6.602457E0,6.211395E-1,2.2590748E1,1.8439837E1,2.2248344E0,3.6122348E0,7.5006866E-1,8.86735E0,1.9387054E-1,2.9027882E0,0E0,0E0,0E0,7.3290653E0,6.0371056E0,1.821518E-2,0E0,5.8730283E0,0E0,0E0,0E0,6.721916E-1,4.547084E0,0E0,5.1050186E-2,0E0,0E0,0E0,4.6243944E0,0E0,0E0,3.0458806E0,2.0786285E-1,0E0,0E0,0E0,0E0,0E0,0E0,0E0,0E0,0E0,0E0,0E0,0E0,0E0,0E0,0E0,0E0],"parents":[2147483647,0,0,1,1,2,2,3,3,4,4,5,5,6,6,8,8,9,9,11,11,12,12,13,13,14,14,15,15,16,16,17,17,18,18,19,19,20,20,21,21,25,25,26,26,27,27,29,29,33,33,34,34,36,36,40,40,43,43,44,44],"right_children":[2,4,6,8,10,12,14,-1,16,18,-1,20,22,24,26,28,30,32,34,36,38,40,-1,-1,-1,42,44,46,-1,48,-1,-1,-1,50,52,-1,54,-1,-1,-1,56,-1,-1,58,60,-1,-1,-1,-1,-1,-1,-1,-1,-1,-1,-1,-1,-1,-1,-1,-1],"split_conditions":[2.6008077E0,8.6628604E-1,6.8154114E-1,1.9573014E0,3E0,2E0,3E0,4.1747037E-1,1E0,1.4767245E0,3.6892968E-1,2.9841118E0,3.9276214E0,6.8743527E-1,3.0433536E0,6.72848E-1,2E0,1E0,2E0,1E0,5.426737E-1,6.061696E-1,-2.0274551E-1,-1.6643192E-1,-5.096962E-1,8.99958E-1,7.194857E-1,6.2732035E-1,-4.973862E-1,7.126067E-1,3.943253E-1,-1.5701282E-1,3.458358E-1,1.5553988E0,2.0804093E0,-3.701738E-1,2.8479564E0,-1.5745735E-1,-4.8101777E-1,4.1305315E-1,3E0,3.8560122E-1,-2.5201836E-1,3.5258007E0,7.4862427E-1,3.270941E-1,9.355507E-2,3.355146E-1,-2.1180277E-1,-1.11177884E-1,-4.802525E-1,2.1730529E-1,-3.7482938E-1,3.2640296E-1,8.9695014E-2,-7.324173E-2,3.2534552E-1,2.4436451E-1,-2.0202817E-1,-1.5728925E-1,-4.8000345E-1],"split_indices":[1,0,0,1,3,3,3,0,3,1,0,1,1,0,1,0,3,3,3,3,0,0,0,0,0,0,0,0,0,0,0,0,0,1,1,0,1,0,0,0,3,0,0,1,0,0,0,0,0,0,0,0,0,0,0,0,0,0,0,0,0],"split_type":[0,0,0,0,0,0,0,0,0,0,0,0,0,0,0,0,0,0,0,0,0,0,0,0,0,0,0,0,0,0,0,0,0,0,0,0,0,0,0,0,0,0,0,0,0,0,0,0,0,0,0,0,0,0,0,0,0,0,0,0,0],"sum_hessian":[2.2513957E2,1.09614426E2,1.1552515E2,8.301123E1,2.6603199E1,4.1060078E1,7.446507E1,5.047218E1,3.2539047E1,1.6027662E1,1.0575538E1,1.5989415E1,2.5070665E1,4.8899227E1,2.5565842E1,8.559234E0,2.3979815E1,4.4276505E0,1.1600011E1,5.7117434E0,1.0277671E1,2.3408218E1,1.6624467E0,1.7092583E0,4.718997E1,6.609004E0,1.8956839E1,4.401006E0,4.158227E0,5.7044387E0,1.8275375E1,1.1557741E0,3.2718763E0,8.411021E0,3.1889904E0,1.9877217E0,3.724022E0,1.4609338E0,8.816737E0,1.4032698E1,9.37552E0,5.186674E0,1.4223297E0,3.768868E0,1.518797E1,3.3247528E0,1.0762533E0,3.7380755E0,1.966363E0,1.2287501E0,7.182271E0,1.0413789E0,2.1476114E0,2.6333456E0,1.0906763E0,3.8689437E0,5.506576E0,1.2833668E0,2.4855013E0,1.4491105E0,1.373886E1],"tree_param":{"num_deleted":"0","num_feature":"5","num_nodes":"61","size_leaf_vector":"1"}},{"base_weights":[2.1985378E-2,7.893868E-1,-6.417091E-1,1.043236E0,1.2605275E-3,1.8049671E-1,-1.0845612E0,6.1703616E-1,1.1928473E0,-6.1151046E-1,1.0487279E0,-4.6839038E-1,1.1153437E0,-1.3818091E0,-5.145885E-1,3.5921618E-1,-1.1002328E-1,3.6914662E-1,6.0595393E-1,5.3639597E-1,-1.0350181E0,3.3970425E-1,9.2866145E-2,3.5936505E-1,-1.0422182E0,3.4895724E-1,7.977242E-2,-1.3555938E-1,-4.2236E-1,5.3901E-1,-1.115228E0,9.0421873E-1,-1.082673E0,-1.0852921E-1,2.881031E-1,2.745557E-1,-1.1938777E-2,-1.192401E0,-4.5485914E-1,-3.0140847E-1,9.371184E-1,4.8030622E-2,-1.1829207E0,1.0832223E0,-2.3532207E-1,1.2221963E-1,-3.981334E-1,3.0052888E-1,7.293853E-2,-2.2489494E-2,-3.889283E-1,-9.209009E-2,-3.9050552E-1,1.361954E-1,-3.337551E-1,3.5583663E-1,9.7905576E-2,-1.6740513E-1,-3.9173388E-1,3.793232E-1,7.736358E-2,1.1274458E-1,-5.0030746E-2],"categories":[],"categories_nodes":[],"categories_segments":[],"categories_sizes":[],"default_left":[0,0,0,0,0,0,0,0,0,0,0,0,0,0,0,0,0,0,0,0,0,0,0,0,0,0,0,0,0,0,0,0,0,0,0,0,0,0,0,0,0,0,0,0,0,0,0,0,0,0,0,0,0,0,0,0,0,0,0,0,0,0,0],"id":2,"left_children":[1,3,5,7,9,11,13,15,17,19,21,23,25,27,29,-1,31,-1,33,35,37,-1,-1,39,41,-1,-1,-1,-1,43,45,47,49,-1,-1,-1,-1,51,53,-1,55,-1,57,59,-1,61,-1,-1,-1,-1,-1,-1,-1,-1,-1,-1,-1,-1,-1,-1,-1,-1,-1],"loss_changes":[1.0106131E2,1.8406597E1,3.894487E1,3.7015E0,1.5671596E1,2.3641026E1,1.1031441E1,8.635568E0,3.6865234E-1,8.044613E0,2.0645142E-1,1.1394526E1,3.3735275E-1,4.532776E-1,1.6643162E1,0E0,1.070778E1,0E0,2.0656855E0,1.0863612E0,5.163393E-1,0E0,0E0,9.013307E0,2.550704E0,0E0,0E0,0E0,0E0,7.964287E0,4.480854E0,1.02900505E-1,1.085216E0,0E0,0E0,0E0,0E0,4.2331505E-1,2.9502795E0,0E0,7.8580475E-1,0E0,2.3987961E-1,7.835264E-1,0E0,3.06253E-1,0E0,0E0,0E0,0E0,0E0,0E0,0E0,0E0,0E0,0E0,0E0,0E0,0E0,0E0,0E0,0E0,0E0],"parents":[2147483647,0,0,1,1,2,2,3,3,4,4,5,5,6,6,7,7,8,8,9,9,10,10,11,11,12,12,13,13,14,14,16,16,18,18,19,19,20,20,23,23,24,24,29,29,30,30,31,31,32,32,37,37,38,38,40,40,42,42,43,43,45,45],"right_children":[2,4,6,8,10,12,14,16,18,20,22,24,26,28,30,-1,32,-1,34,36,38,-1,-1,40,42,-1,-1,-1,-1,44,46,48,50,-1,-1,-1,-1,52,54,-1,56,-1,58,60,-1,62,-1,-1,-1,-1,-1,-1,-1,-1,-1,-1,-1,-1,-1,-1,-1,-1,-1],"split_conditions":[2.5571795E0,8.7197316E-1,6.8154114E-1,1E0,3E0,3E0,3E0,1.8092488E0,8.4236556E-1,1.4767245E0,2.248462E0,3.0768297E0,6.614782E-1,6.8743527E-1,3.1919515E0,3.5921618E-1,6.72848E-1,3.6914662E-1,2E0,1E0,2E0,3.3970425E-1,9.2866145E-2,1E0,5.257394E-1,3.4895724E-1,7.977242E-2,-1.3555938E-1,-4.2236E-1,8.99958E-1,7.044765E-1,6.326012E-1,1.9573014E0,-1.0852921E-1,2.881031E-1,2.745557E-1,-1.1938777E-2,1.5553988E0,2.172718E0,-3.0140847E-1,1E0,4.8030622E-2,3.3471565E0,8.531211E-1,-2.3532207E-1,3.6299522E0,-3.981334E-1,3.0052888E-1,7.293853E-2,-2.2489494E-2,-3.889283E-1,-9.209009E-2,-3.9050552E-1,1.361954E-1,-3.337551E-1,3.5583663E-1,9.7905576E-2,-1.6740513E-1,-3.9173388E-1,3.793232E-1,7.736358E-2,1.1274458E-1,-5.0030746E-2],"split_indices":[1,0,0,3,3,3,3,1,0,1,1,1,0,0,1,0,0,0,3,2,3,0,0,3,0,0,0,0,0,0,0,0,1,0,0,0,0,1,1,0,4,0,1,0,0,1,0,0,0,0,0,0,0,0,0,0,0,0,0,0,0,0,0],"split_type":[0,0,0,0,0,0,0,0,0,0,0,0,0,0,0,0,0,0,0,0,0,0,0,0,0,0,0,0,0,0,0,0,0,0,0,0,0,0,0,0,0,0,0,0,0,0,0,0,0,0,0,0,0,0,0,0,0,0,0,0,0,0,0],"sum_hessian":[1.9642938E2,9.100956E1,1.0541983E2,6.8592705E1,2.2416855E1,3.7111145E1,6.8308685E1,1.9153652E1,4.943905E1,1.4405691E1,8.011164E0,2.2200506E1,1.4910637E1,4.395911E1,2.4349571E1,1.0291729E1,8.861922E0,4.5428783E1,4.010267E0,3.810601E0,1.059509E1,6.7191467E0,1.292017E0,9.242213E0,1.2958293E1,1.3765865E1,1.1447718E0,1.6980964E0,4.2261017E1,8.878375E0,1.5471195E1,4.3726473E0,4.489275E0,1.0693707E0,2.940896E0,1.9441669E0,1.866434E0,7.5041084E0,3.090982E0,2.5299954E0,6.7122183E0,1.3431379E0,1.1615155E1,6.4198966E0,2.4584785E0,2.323659E0,1.3147537E1,3.3613584E0,1.0112886E0,1.0219908E0,3.4672842E0,1.242894E0,6.2612143E0,1.427692E0,1.6632899E0,4.099052E0,2.613166E0,2.8189435E0,8.796212E0,4.828017E0,1.5918794E0,1.0775925E0,1.2460663E0],"tree_param":{"num_deleted":"0","num_feature":"5","num_nodes":"63","size_leaf_vector":"1"}},{"base_weights":[2.4448434E-2,6.8512684E-1,-5.578057E-1,1.0729117E0,2.620528E-1,-1.3601275E-2,-1.0905926E0,3.4283617E-1,2.1450816E-1,-4.3898237E-1,8.487922E-1,-8.692532E-1,5.420242E-1,-3.7478906E-1,-7.1374476E-1,2.4814601E-1,-1.9909266E-1,1.1367333E-1,-3.8175473E-1,3.39303E-1,2.6549175E-1,-2.3995703E-1,-1.1611589E0,9.0475935E-1,-2.2183071E-1,3.6697763E-1,-1.1490942E0,8.30219E-1,-5.96556E-1,-5.809757E-1,8.358732E-1,2.1109197E-1,-8.4491897E-1,-1.2396874E-1,-3.664727E-1,3.328589E-1,4.295338E-1,6.075572E-1,-6.8360984E-1,2.5138435E-1,-1.7238162E-1,-1.0013724E-1,-3.60125E-1,3.0477208E-1,6.872094E-2,-3.896201E-1,1.335873E-1,4.880471E-2,-3.1335616E-1,2.857059E-1,5.4335702E-2,-5.420403E-2,-3.097972E-1,2.948808E-1,-2.1454502E-2,2.4472955E-1,-9.2908296E-5,-3.7083185E-1,4.2001293E-3],"categories":[],"categories_nodes":[],"categories_segments":[],"categories_sizes":[],"default_left":[0,0,0,0,0,0,0,0,0,0,0,0,0,0,0,0,0,0,0,0,0,0,0,0,0,0,0,0,0,0,0,0,0,0,0,0,0,0,0,0,0,0,0,0,0,0,0,0,0,0,0,0,0,0,0,0,0,0,0],"id":3,"left_children":[1,3,5,7,9,11,13,-1,15,17,19,21,23,-1,25,-1,-1,27,-1,-1,29,31,33,35,37,39,41,43,45,47,49,-1,51,-1,-1,-1,53,55,57,-1,-1,-1,-1,-1,-1,-1,-1,-1,-1,-1,-1,-1,-1,-1,-1,-1,-1,-1,-1],"loss_changes":[6.487429E1,1.2677227E1,2.5983185E1,2.207386E0,1.6454123E1,2.2041061E1,1.817318E0,0E0,2.8670928E0,8.654153E0,3.259472E0,3.0731516E0,7.993105E0,0E0,7.8344994E0,0E0,0E0,6.615327E0,0E0,0E0,4.5208178E0,4.6145544E0,4.668045E-2,1.3981743E0,4.190973E0,2.823927E0,7.9390526E-2,4.8218298E-1,5.422269E0,1.5331268E0,2.3958993E-1,0E0,4.0520263E-1,0E0,0E0,0E0,2.1313672E0,5.134891E-1,2.6393785E0,0E0,0E0,0E0,0E0,0E0,0E0,0E0,0E0,0E0,0E0,0E0,0E0,0E0,0E0,0E0,0E0,0E0,0E0,0E0,0E0],"parents":[2147483647,0,0,1,1,2,2,3,3,4,4,5,5,6,6,8,8,9,9,10,10,11,11,12,12,14,14,17,17,20,20,21,21,22,22,23,23,24,24,25,25,26,26,27,27,28,28,29,29,30,30,32,32,36,36,37,37,38,38],"right_children":[2,4,6,8,10,12,14,-1,16,18,20,22,24,-1,26,-1,-1,28,-1,-1,30,32,34,36,38,40,42,44,46,48,50,-1,52,-1,-1,-1,54,56,58,-1,-1,-1,-1,-1,-1,-1,-1,-1,-1,-1,-1,-1,-1,-1,-1,-1,-1,-1,-1],"split_conditions":[2.6008077E0,7.747644E-1,7.4862427E-1,2.4682748E0,2E0,2E0,3E0,3.4283617E-1,6.251215E-1,1.9807949E0,2.1131163E0,2.9841118E0,3.6048176E0,-3.7478906E-1,3.0433536E0,2.4814601E-1,-1.9909266E-1,8.808098E-1,-3.8175473E-1,3.39303E-1,3E0,6.123024E-1,5.426737E-1,3.3395529E0,5.922605E-1,8.99958E-1,3.1576054E0,1.7951393E0,1E0,8.877638E-1,9.2243767E-1,2.1109197E-1,6.460723E-1,-1.2396874E-1,-3.664727E-1,3.328589E-1,6.061696E-1,3.920467E0,4E0,2.5138435E-1,-1.7238162E-1,-1.0013724E-1,-3.60125E-1,3.0477208E-1,6.872094E-2,-3.896201E-1,1.335873E-1,4.880471E-2,-3.1335616E-1,2.857059E-1,5.4335702E-2,-5.420403E-2,-3.097972E-1,2.948808E-1,-2.1454502E-2,2.4472955E-1,-9.2908296E-5,-3.7083185E-1,4.2001293E-3],"split_indices":[1,0,0,1,3,3,3,0,0,1,1,1,1,0,1,0,0,0,0,0,3,0,0,1,0,0,1,1,3,0,0,0,0,0,0,0,0,1,3,0,0,0,0,0,0,0,0,0,0,0,0,0,0,0,0,0,0,0,0],"split_type":[0,0,0,0,0,0,0,0,0,0,0,0,0,0,0,0,0,0,0,0,0,0,0,0,0,0,0,0,0,0,0,0,0,0,0,0,0,0,0,0,0,0,0,0,0,0,0,0,0,0,0,0,0,0,0,0,0,0,0],"sum_hessian":[1.6665018E2,7.798483E1,8.866535E1,3.988797E1,3.8096863E1,4.4370018E1,4.4295334E1,3.657908E1,3.3088894E0,1.7472536E1,2.0624329E1,1.724642E1,2.7123596E1,2.9539892E1,1.4755441E1,1.9833031E0,1.3255863E0,1.1025769E1,6.446767E0,1.3266586E1,7.357742E0,6.042314E0,1.1204106E1,1.8265373E1,8.858224E0,4.2822146E0,1.0473226E1,5.404381E0,5.621389E0,2.954532E0,4.40321E0,2.2967756E0,3.7455385E0,1.423352E0,9.780755E0,1.1832231E1,6.4331427E0,3.0551934E0,5.8030305E0,2.927816E0,1.3543986E0,1.0646169E0,9.408609E0,3.6018653E0,1.8025155E0,3.210815E0,2.410574E0,1.3837113E0,1.5708206E0,3.3523178E0,1.0508922E0,1.2577794E0,2.487759E0,2.5998662E0,3.8332763E0,2.0209575E0,1.0342361E0,2.8075666E0,2.9954638E0],"tree_param":{"num_deleted":"0","num_feature":"5","num_nodes":"59","size_leaf_vector":"1"}},{"base_weights":[2.0759394E-2,5.6353647E-1,-5.446868E-1,1.3072082E-1,9.4990134E-1,3.903025E-1,-7.8380823E-1,9.440582E-1,-3.591573E-1,3.25722E-1,4.661413E-1,-2.9536346E-1,7.310318E-1,-1.0012407E0,-1.1832485E-2,3.1284875E-1,3.5035232E-1,2.836625E-1,-3.4717128E-1,2.9567042E-1,-3.4954873E-1,9.331207E-1,-5.976624E-2,-5.684011E-1,-1.1382328E0,2.7583623E-1,-4.3444723E-1,2.1110515E-1,-6.986812E-2,8.444982E-1,-4.9499285E-1,-3.1607774E-1,2.3922147E-1,3.6462605E-1,3.206615E-1,-3.1346792E-1,2.9250557E-2,-1.0401905E-1,-3.521104E-1,1.1897886E-1,-3.284523E-1,2.9745403E-1,8.302822E-2,-3.337099E-1,1.06306866E-1,2.3820785E-1,-9.9758305E-2,2.6149684E-1,-2.894055E-1,3.0438474E-1,-1.8484014E-1],"categories":[],"categories_nodes":[],"categories_segments":[],"categories_sizes":[],"default_left":[0,0,0,0,0,0,0,0,0,0,0,0,0,0,0,0,0,0,0,0,0,0,0,0,0,0,0,0,0,0,0,0,0,0,0,0,0,0,0,0,0,0,0,0,0,0,0,0,0,0,0],"id":4,"left_children":[1,3,5,7,9,11,13,15,17,-1,19,-1,21,23,25,-1,27,29,-1,-1,31,33,-1,35,37,-1,39,-1,-1,41,43,-1,-1,45,-1,-1,47,-1,-1,49,-1,-1,-1,-1,-1,-1,-1,-1,-1,-1,-1],"loss_changes":[4.3460068E1,1.1954781E1,1.5815998E1,1.4375004E1,1.9912796E0,7.650999E0,9.316822E0,4.273281E-1,1.1978965E1,0E0,4.617111E0,0E0,2.5229201E0,1.9235573E0,5.6046753E0,0E0,8.7156326E-1,6.2617507E0,0E0,0E0,4.6042957E0,4.1199493E-1,0E0,3.567325E0,4.8947144E-1,0E0,3.7032993E0,0E0,0E0,4.0570116E-1,3.662682E0,0E0,0E0,1.3178608E0,0E0,0E0,6.2682767E0,0E0,0E0,4.720944E0,0E0,0E0,0E0,0E0,0E0,0E0,0E0,0E0,0E0,0E0,0E0],"parents":[2147483647,0,0,1,1,2,2,3,3,4,4,5,5,6,6,7,7,8,8,10,10,12,12,13,13,14,14,16,16,17,17,20,20,21,21,23,23,24,24,26,26,29,29,30,30,33,33,36,36,39,39],"right_children":[2,4,6,8,10,12,14,16,18,-1,20,-1,22,24,26,-1,28,30,-1,-1,32,34,-1,36,38,-1,40,-1,-1,42,44,-1,-1,46,-1,-1,48,-1,-1,50,-1,-1,-1,-1,-1,-1,-1,-1,-1,-1,-1],"split_conditions":[2.7598255E0,2E0,6.025698E-1,6.9908434E-1,8.9480907E-1,1E0,4E0,2.4635623E0,1.9807949E0,3.25722E-1,2.1032782E0,-2.9536346E-1,3.8220377E0,3.029404E0,6.946478E-1,3.1284875E-1,6.123024E-1,8.808098E-1,-3.4717128E-1,2.9567042E-1,4E0,2E0,-5.976624E-2,2E0,6.2120485E-1,2.7583623E-1,3.5258007E0,2.1110515E-1,-6.986812E-2,1.7951393E0,1E0,-3.1607774E-1,2.3922147E-1,3.068395E0,3.206615E-1,-3.1346792E-1,7.9842144E-1,-1.0401905E-1,-3.521104E-1,8.058604E-1,-3.284523E-1,2.9745403E-1,8.302822E-2,-3.337099E-1,1.06306866E-1,2.3820785E-1,-9.9758305E-2,2.6149684E-1,-2.894055E-1,3.0438474E-1,-1.8484014E-1],"split_indices":[1,3,0,0,0,3,3,1,1,0,1,0,1,1,0,0,0,0,0,0,3,3,0,3,0,0,1,0,0,1,3,0,0,1,0,0,0,0,0,0,0,0,0,0,0,0,0,0,0,0,0],"split_type":[0,0,0,0,0,0,0,0,0,0,0,0,0,0,0,0,0,0,0,0,0,0,0,0,0,0,0,0,0,0,0,0,0,0,0,0,0,0,0,0,0,0,0,0,0,0,0,0,0,0,0],"sum_hessian":[1.3960455E2,7.123183E1,6.837272E1,3.4227573E1,3.7004253E1,1.3796146E1,5.4576572E1,1.2517623E1,2.1709951E1,2.7920006E1,9.084249E0,2.3647647E0,1.1431381E1,4.23511E1,1.22254715E1,1.0083605E1,2.4340181E0,1.2381637E1,9.328314E0,5.422786E0,3.6614618E0,9.38869E0,2.0426915E0,1.141944E1,3.0931662E1,3.4491622E0,8.776309E0,1.3871715E0,1.0468467E0,7.148375E0,5.2332616E0,2.3192298E0,1.3422321E0,2.5202854E0,6.8684044E0,5.9373865E0,5.4820538E0,1.7888135E0,2.9142849E1,5.220902E0,3.5554075E0,5.08515E0,2.0632253E0,2.8511517E0,2.3821099E0,1.4736569E0,1.0466284E0,3.0337975E0,2.448256E0,2.1820934E0,3.0388086E0],"tree_param":{"num_deleted":"0","num_feature":"5","num_nodes":"51","size_leaf_vector":"1"}},{"base_weights":[2.2109633E-2,5.155561E-1,-4.7662607E-1,8.716989E-1,8.647696E-2,-6.2041003E-2,-9.3966115E-1,3.0947593E-1,4.1750735E-1,-3.3997038E-1,2.598794E-1,-7.9181045E-1,3.6986962E-1,-4.6044895E-1,-3.114832E-1,-4.2840943E-1,7.505244E-1,3.6342013E-1,-8.338264E-1,-3.3693334E-1,-2.9805565E-1,5.5191636E-1,-5.356247E-1,-2.669546E-1,2.8158063E-1,1.01633936E-1,-2.67786E-1,2.9156083E-1,-1.5106623E-3,-3.204497E-1,2.9649714E-1,-2.9347244E-1,-3.4161684E-1,2.05885E-1,-2.3740666E-1,2.9778805E-1,2.683961E-1,9.560721E-2,-2.925312E-1,2.0609356E-1,-8.2016364E-2,2.093757E-1,-2.9134727E-1,7.365573E-2,-2.613111E-1,-4.682824E-2,2.364415E-1],"categories":[],"categories_nodes":[],"categories_segments":[],"categories_sizes":[],"default_left":[0,0,0,0,0,0,0,0,0,0,0,0,0,0,0,0,0,0,0,0,0,0,0,0,0,0,0,0,0,0,0,0,0,0,0,0,0,0,0,0,0,0,0,0,0,0,0],"id":5,"left_children":[1,3,5,7,9,11,13,-1,15,17,-1,19,21,23,-1,25,27,29,31,33,-1,35,37,-1,39,-1,-1,-1,-1,41,-1,-1,43,-1,-1,-1,45,-1,-1,-1,-1,-1,-1,-1,-1,-1,-1],"loss_changes":[2.9101381E1,9.004635E0,1.12357435E1,1.9191952E0,9.625533E0,1.041417E1,8.3201027E-1,0E0,3.1682072E0,6.8537827E0,0E0,7.898865E-1,3.7332304E0,2.330585E0,0E0,1.5456958E0,1.278276E0,3.9386191E0,4.7492695E-1,2.997542E0,0E0,1.9646516E0,1.8119314E0,0E0,8.970838E-1,0E0,0E0,0E0,0E0,3.8597794E0,0E0,0E0,1.4941249E0,0E0,0E0,0E0,2.8226304E0,0E0,0E0,0E0,0E0,0E0,0E0,0E0,0E0,0E0,0E0],"parents":[2147483647,0,0,1,1,2,2,3,3,4,4,5,5,6,6,8,8,9,9,11,11,12,12,13,13,15,15,16,16,17,17,18,18,19,19,21,21,22,22,24,24,29,29,32,32,36,36],"right_children":[2,4,6,8,10,12,14,-1,16,18,-1,20,22,24,-1,26,28,30,32,34,-1,36,38,-1,40,-1,-1,-1,-1,42,-1,-1,44,-1,-1,-1,46,-1,-1,-1,-1,-1,-1,-1,-1,-1,-1],"split_conditions":[2.7598255E0,7.9495883E-1,7.4862427E-1,2.3312507E0,3E0,2E0,7.9842144E-1,3.0947593E-1,1E0,1.7730486E0,2.598794E-1,3.068395E0,3.8498836E0,3E0,-3.114832E-1,6.2732035E-1,7.194857E-1,1E0,2E0,5.8615994E-1,-2.9805565E-1,6.061696E-1,5.507358E-1,-2.669546E-1,2.97635E0,1.01633936E-1,-2.67786E-1,2.9156083E-1,-1.5106623E-3,8.808098E-1,2.9649714E-1,-2.9347244E-1,2.318215E0,2.05885E-1,-2.3740666E-1,2.9778805E-1,4E0,9.560721E-2,-2.925312E-1,2.0609356E-1,-8.2016364E-2,2.093757E-1,-2.9134727E-1,7.365573E-2,-2.613111E-1,-4.682824E-2,2.364415E-1],"split_indices":[1,0,0,1,3,3,0,0,3,1,0,1,1,3,0,0,0,3,3,0,0,0,0,0,1,0,0,0,0,0,0,0,1,0,0,0,3,0,0,0,0,0,0,0,0,0,0],"split_type":[0,0,0,0,0,0,0,0,0,0,0,0,0,0,0,0,0,0,0,0,0,0,0,0,0,0,0,0,0,0,0,0,0,0,0,0,0,0,0,0,0,0,0,0,0,0,0],"sum_hessian":[1.1625206E2,5.841894E1,5.783312E1,3.135894E1,2.7060001E1,3.1111227E1,2.6721891E1,2.2253765E1,9.105176E0,1.785794E1,9.202061E0,1.125729E1,1.9853937E1,5.528068E0,2.1193823E1,2.4910529E0,6.6141233E0,7.475226E0,1.0382715E1,4.278698E0,6.978592E0,1.6855644E1,2.9982934E0,3.3755097E0,2.1525586E0,1.0409324E0,1.4501206E0,4.894086E0,1.720037E0,3.8018417E0,3.6733842E0,7.2639985E0,3.118717E0,1.1589259E0,3.119772E0,5.6194935E0,1.1236151E1,1.1118274E0,1.8864659E0,1.1064446E0,1.046114E0,1.4539039E0,2.3479378E0,1.7330188E0,1.3856982E0,6.5699387E0,4.6662116E0],"tree_param":{"num_deleted":"0","num_feature":"5","num_nodes":"47","size_leaf_vector":"1"}},{"base_weights":[2.0374322E-2,6.27061E-1,-3.1090537E-1,8.5748297E-1,2.9045088E-2,-6.456047E-1,2.0937254E-1,3.0296174E-1,5.245268E-1,-2.742063E-1,4.556987E-1,-1.6668038E-1,-3.0501357E-1,2.7951592E-1,-1.2951916E-1,2.5824335E-1,3.3000354E-3,2.807764E-1,-2.1633218E-1,4.5078003E-1,-7.067484E-1,4.8121276E-1,-6.637092E-1,-2.3516662E-1,4.702765E-1,-2.1197017E-1,7.735144E-2,-3.674023E-1,7.8979385E-1,1.0683805E-2,-8.0947876E-1,8.756898E-1,-4.1138983E-1,1.763733E-2,-2.6481244E-1,2.1390395E-1,1.73431E-2,6.8173684E-2,-2.1642052E-1,2.815104E-1,1.1776094E-1,-8.856567E-2,-2.8517488E-1,2.937422E-1,9.412438E-2,-2.2389336E-1,3.120457E-2,-8.8255316E-2,9.384233E-2],"categories":[],"categories_nodes":[],"categories_segments":[],"categories_sizes":[],"default_left":[0,0,0,0,0,0,0,0,0,0,0,0,0,0,0,0,0,0,0,0,0,0,0,0,0,0,0,0,0,0,0,0,0,0,0,0,0,0,0,0,0,0,0,0,0,0,0,0,0],"id":6,"left_children":[1,3,5,7,9,11,13,-1,15,-1,17,19,-1,-1,21,-1,23,-1,25,27,29,31,33,-1,35,-1,-1,37,39,-1,41,43,45,47,-1,-1,-1,-1,-1,-1,-1,-1,-1,-1,-1,-1,-1,-1,-1],"loss_changes":[2.0050318E1,4.8287506E0,1.1378788E1,7.5862694E-1,4.7749615E0,6.8573914E0,6.493136E0,0E0,1.7592773E0,0E0,2.8247147E0,6.4733973E0,0E0,0E0,6.3865037E0,0E0,2.1869047E0,0E0,1.1581733E0,2.8481169E0,8.0936813E-1,3.6195407E0,1.5584836E0,0E0,3.3219367E-1,0E0,0E0,8.763237E-1,3.5236835E-2,0E0,3.7483072E-1,8.456135E-2,6.847969E-1,4.1375694E-1,0E0,0E0,0E0,0E0,0E0,0E0,0E0,0E0,0E0,0E0,0E0,0E0,0E0,0E0,0E0],"parents":[2147483647,0,0,1,1,2,2,3,3,4,4,5,5,6,6,8,8,10,10,11,11,14,14,16,16,18,18,19,19,20,20,21,21,22,22,24,24,27,27,28,28,30,30,31,31,32,32,33,33],"right_children":[2,4,6,8,10,12,14,-1,16,-1,18,20,-1,-1,22,-1,24,-1,26,28,30,32,34,-1,36,-1,-1,38,40,-1,42,44,46,48,-1,-1,-1,-1,-1,-1,-1,-1,-1,-1,-1,-1,-1,-1,-1],"split_conditions":[2.3312507E0,8.847465E-1,3E0,7.747644E-1,1E0,6.8743527E-1,6.744341E-1,3.0296174E-1,1.8784661E0,-2.742063E-1,1.7794107E0,3.068395E0,-3.0501357E-1,2.7951592E-1,3.1919515E0,2.5824335E-1,1E0,2.807764E-1,2E0,1E0,5.257394E-1,8.99958E-1,7.044765E-1,-2.3516662E-1,2.1131163E0,-2.1197017E-1,7.735144E-2,2.5868113E0,2.8479564E0,1.0683805E-2,3.3471565E0,8.531211E-1,4E0,6.866547E-1,-2.6481244E-1,2.1390395E-1,1.73431E-2,6.8173684E-2,-2.1642052E-1,2.815104E-1,1.1776094E-1,-8.856567E-2,-2.8517488E-1,2.937422E-1,9.412438E-2,-2.2389336E-1,3.120457E-2,-8.8255316E-2,9.384233E-2],"split_indices":[1,0,3,0,3,0,0,0,1,0,1,1,0,0,1,0,3,0,3,3,0,0,0,0,1,0,0,1,1,0,1,0,3,0,0,0,0,0,0,0,0,0,0,0,0,0,0,0,0],"split_type":[0,0,0,0,0,0,0,0,0,0,0,0,0,0,0,0,0,0,0,0,0,0,0,0,0,0,0,0,0,0,0,0,0,0,0,0,0,0,0,0,0,0,0,0,0,0,0,0,0],"sum_hessian":[9.779126E1,3.4223484E1,6.3567772E1,2.4391354E1,9.8321295E0,3.853621E1,2.5031565E1,1.5338216E1,9.053139E0,2.7067919E0,7.1253376E0,1.7456823E1,2.1079386E1,7.4348593E0,1.7596704E1,5.1068187E0,3.9463196E0,3.9267023E0,3.198635E0,8.221967E0,9.234857E0,8.256425E0,9.340281E0,1.2166867E0,2.7296329E0,1.3317025E0,1.8669326E0,2.384187E0,5.83778E0,1.2020209E0,8.032836E0,5.7390537E0,2.5173712E0,2.4955664E0,6.844714E0,1.2596624E0,1.4699705E0,1.023304E0,1.360883E0,3.2573988E0,2.5803812E0,2.395294E0,5.6375422E0,4.219787E0,1.5192666E0,1.2542944E0,1.2630768E0,1.2151778E0,1.2803885E0],"tree_param":{"num_deleted":"0","num_feature":"5","num_nodes":"49","size_leaf_vector":"1"}},{"base_weights":[2.1735784E-2,6.5509796E-1,-2.3471305E-1,7.518442E-2,2.7163324E-1,8.845387E-2,-6.771068E-1,5.40869E-1,-2.2356652E-1,-4.1972527E-1,4.2841378E-1,-8.717133E-1,4.709276E-2,2.4960658E-1,-5.14553E-2,1.6103207E-1,-7.335788E-1,2.7490157E-1,-1.0792849E-1,-2.910455E-1,-4.3137914E-1,2.2104774E-1,-2.3487249E-1,2.1746776E-1,-5.511754E-1,-2.4348328E-1,-2.998233E-1,5.884086E-1,-4.247335E-1,3.257838E-2,-2.1991661E-1,-2.2173032E-1,-2.2285769E-2,1.4473054E-1,-1.8892805E-1,3.1358495E-2,2.2017588E-1,-2.6011804E-1,3.5258763E-2],"categories":[],"categories_nodes":[],"categories_segments":[],"categories_sizes":[],"default_left":[0,0,0,0,0,0,0,0,0,0,0,0,0,0,0,0,0,0,0,0,0,0,0,0,0,0,0,0,0,0,0,0,0,0,0,0,0,0,0],"id":7,"left_children":[1,3,5,7,-1,9,11,13,-1,15,17,19,21,-1,-1,23,25,-1,27,-1,29,-1,-1,-1,31,33,-1,35,37,-1,-1,-1,-1,-1,-1,-1,-1,-1,-1],"loss_changes":[1.365704E1,3.4487324E0,8.62527E0,3.610279E0,0E0,6.313764E0,3.6216297E0,1.3736029E0,0E0,2.8042464E0,5.7956495E0,4.5171547E-1,4.200571E0,0E0,0E0,2.8050666E0,1.0264974E0,0E0,2.7348924E0,0E0,9.704528E-1,0E0,0E0,0E0,2.3321539E-1,1.6356527E0,0E0,2.0081031E-1,2.0982108E0,0E0,0E0,0E0,0E0,0E0,0E0,0E0,0E0,0E0,0E0],"parents":[2147483647,0,0,1,1,2,2,3,3,5,5,6,6,7,7,9,9,10,10,11,11,12,12,15,15,16,16,18,18,20,20,24,24,25,25,27,27,28,28],"right_children":[2,4,6,8,-1,10,12,14,-1,16,18,20,22,-1,-1,24,26,-1,28,-1,30,-1,-1,-1,32,34,-1,36,38,-1,-1,-1,-1,-1,-1,-1,-1,-1,-1],"split_conditions":[2.1276648E0,1E0,7.713223E-1,8.6297786E-1,2.7163324E-1,2E0,4E0,1.8784661E0,-2.2356652E-1,2.777051E0,3.3844287E0,3E0,3.0433536E0,2.4960658E-1,-5.14553E-2,6.460723E-1,5.9091246E-1,2.7490157E-1,6.061696E-1,-2.910455E-1,8.531211E-1,2.2104774E-1,-2.3487249E-1,2.1746776E-1,1E0,3.068395E0,-2.998233E-1,3E0,4E0,3.257838E-2,-2.1991661E-1,-2.2173032E-1,-2.2285769E-2,1.4473054E-1,-1.8892805E-1,3.1358495E-2,2.2017588E-1,-2.6011804E-1,3.5258763E-2],"split_indices":[1,3,0,0,0,3,3,1,0,1,1,3,1,0,0,0,0,0,0,0,0,0,0,0,3,1,0,3,3,0,0,0,0,0,0,0,0,0,0],"split_type":[0,0,0,0,0,0,0,0,0,0,0,0,0,0,0,0,0,0,0,0,0,0,0,0,0,0,0,0,0,0,0,0,0,0,0,0,0,0,0],"sum_hessian":[8.213548E1,2.322392E1,5.8911564E1,7.394734E0,1.5829186E1,3.4505493E1,2.4406073E1,4.934506E0,2.4602282E0,1.3736803E1,2.076869E1,1.9076227E1,5.329845E0,3.3836641E0,1.5508417E0,4.990064E0,8.746739E0,1.0504224E1,1.0264465E1,1.4607461E1,4.4687657E0,2.972199E0,2.357646E0,2.775147E0,2.214917E0,3.749672E0,4.997067E0,2.941572E0,7.3228936E0,1.8311676E0,2.6375983E0,1.194406E0,1.0205109E0,1.2158418E0,2.5338304E0,1.0773431E0,1.864229E0,3.7032037E0,3.6196897E0],"tree_param":{"num_deleted":"0","num_feature":"5","num_nodes":"39","size_leaf_vector":"1"}},{"base_weights":[1.4384379E-2,3.0417758E-1,-4.636781E-1,-8.955403E-2,6.870864E-1,-1.5920348E-1,-2.8962502E-1,6.0686153E-1,-3.9486414E-1,8.7319326E-1,-8.053397E-2,-6.238045E-1,3.1152892E-1,2.4073942E-1,-3.7691328E-3,2.9106852E-1,-7.759315E-1,2.9806215E-1,5.29399E-1,1.9110353E-1,-5.2128583E-1,-1.9095124E-1,-2.6502833E-1,2.5439948E-1,-1.0696727E-1,2.3495734E-1,-2.0303819E-1,-7.248516E-2,-8.623541E-1,2.3255666E-1,3.5178598E-2,3.5549875E-3,-2.1882904E-1,2.1448366E-1,-2.2064993E-1,3.906507E-1,-2.608449E-1,-1.8224603E-1,1.2857293E-1,-6.89542E-2,-2.935278E-1,-6.4860545E-2,8.044025E-2,-9.126505E-2,2.0328917E-1,-2.8758248E-2,1.9156332E-1],"categories":[],"categories_nodes":[],"categories_segments":[],"categories_sizes":[],"default_left":[0,0,0,0,0,0,0,0,0,0,0,0,0,0,0,0,0,0,0,0,0,0,0,0,0,0,0,0,0,0,0,0,0,0,0,0,0,0,0,0,0,0,0,0,0,0,0],"id":8,"left_children":[1,3,5,7,9,11,-1,13,15,17,19,21,23,-1,-1,25,27,-1,29,-1,31,33,-1,-1,35,-1,37,-1,39,-1,41,-1,-1,43,-1,45,-1,-1,-1,-1,-1,-1,-1,-1,-1,-1,-1],"loss_changes":[1.0022032E1,6.8472304E0,4.0189304E0,5.146015E0,3.3465729E0,4.173826E0,0E0,9.099791E-1,4.5774937E0,2.4121761E-1,2.0369253E0,8.978567E-1,2.2696354E0,0E0,0E0,1.7816241E0,2.9844618E-1,0E0,8.167982E-1,0E0,4.402473E-1,1.2249953E0,0E0,0E0,2.7453556E0,0E0,1.3138276E0,0E0,4.4012022E-1,0E0,2.5446782E-1,0E0,0E0,1.0578157E0,0E0,6.0711205E-1,0E0,0E0,0E0,0E0,0E0,0E0,0E0,0E0,0E0,0E0,0E0],"parents":[2147483647,0,0,1,1,2,2,3,3,4,4,5,5,7,7,8,8,9,9,10,10,11,11,12,12,15,15,16,16,18,18,20,20,21,21,24,24,26,26,28,28,30,30,33,33,35,35],"right_children":[2,4,6,8,10,12,-1,14,16,18,20,22,24,-1,-1,26,28,-1,30,-1,32,34,-1,-1,36,-1,38,-1,40,-1,42,-1,-1,44,-1,46,-1,-1,-1,-1,-1,-1,-1,-1,-1,-1,-1],"split_conditions":[3.068395E0,2E0,7.59419E-1,6.600248E-1,9.248237E-1,3E0,-2.8962502E-1,2.777051E0,1.8244181E0,8.129299E-1,2.1032782E0,5.8850527E-1,3.5330713E0,2.4073942E-1,-3.7691328E-3,8.6297786E-1,7.126067E-1,2.9806215E-1,2.5076983E0,1.9110353E-1,1E0,3.6426122E0,-2.6502833E-1,2.5439948E-1,6.946478E-1,2.3495734E-1,1E0,-7.248516E-2,1.9807949E0,2.3255666E-1,8.6113346E-1,3.5549875E-3,-2.1882904E-1,2E0,-2.2064993E-1,4E0,-2.608449E-1,-1.8224603E-1,1.2857293E-1,-6.89542E-2,-2.935278E-1,-6.4860545E-2,8.044025E-2,-9.126505E-2,2.0328917E-1,-2.8758248E-2,1.9156332E-1],"split_indices":[1,3,0,0,0,3,0,1,1,0,1,0,1,0,0,0,0,0,1,0,4,1,0,0,0,0,3,0,1,0,0,0,0,3,0,3,0,0,0,0,0,0,0,0,0,0,0],"split_type":[0,0,0,0,0,0,0,0,0,0,0,0,0,0,0,0,0,0,0,0,0,0,0,0,0,0,0,0,0,0,0,0,0,0,0,0,0,0,0,0,0,0,0,0,0,0,0],"sum_hessian":[7.0322685E1,4.4008953E1,2.6313738E1,2.2075558E1,2.1933393E1,1.7195898E1,9.11784E0,6.427249E0,1.5648309E1,1.7542696E1,4.3906975E0,8.490656E0,8.705242E0,4.660157E0,1.7670915E0,5.6729693E0,9.97534E0,1.1594166E1,5.9485307E0,1.5012965E0,2.889401E0,3.833987E0,4.6566687E0,3.365157E0,5.340085E0,2.5490704E0,3.123899E0,1.9172927E0,8.058047E0,3.593081E0,2.3554497E0,1.0761203E0,1.8132807E0,2.5451567E0,1.2888303E0,3.5264225E0,1.8136626E0,1.9277087E0,1.1961902E0,1.7115538E0,6.3464932E0,1.1675137E0,1.187936E0,1.3624433E0,1.1827134E0,1.3973359E0,2.1290867E0],"tree_param":{"num_deleted":"0","num_feature":"5","num_nodes":"47","size_leaf_vector":"1"}},{"base_weights":[1.2624976E-2,3.6652738E-1,-3.2212055E-1,3.212809E-2,7.0345247E-1,8.697584E-2,-6.236869E-1,6.215963E-1,-3.0040374E-1,2.5935918E-1,1.5414555E-1,-4.4339922E-1,4.6495116E-1,-2.519179E-1,-1.1368724E-1,2.4817283E-1,-7.1457587E-3,2.959411E-1,-6.806193E-1,-2.3934716E-1,1.9797055E-1,-2.3459245E-1,-1.0083768E-1,6.0110134E-1,-8.991987E-2,2.5254464E-1,-4.6845016E-1,2.0783721E-1,-4.5960985E-2,-2.085486E-1,-2.640062E-1,7.929059E-2,-1.7689918E-1,2.836879E-1,-1.8569057E-1,2.492951E-1,2.8360286E-1,1.9432099E-1,-9.553404E-2,2.8831068E-2,-2.2299804E-1,8.1623316E-2,-2.0149173E-1,2.524514E-1,-1.3563876E-1,2.0968528E-1,-2.1617547E-2],"categories":[],"categories_nodes":[],"categories_segments":[],"categories_sizes":[],"default_left":[0,0,0,0,0,0,0,0,0,0,0,0,0,0,0,0,0,0,0,0,0,0,0,0,0,0,0,0,0,0,0,0,0,0,0,0,0,0,0,0,0,0,0,0,0,0,0],"id":9,"left_children":[1,3,5,7,9,11,13,15,17,-1,19,21,23,-1,25,-1,-1,27,29,31,-1,-1,33,35,-1,37,39,-1,-1,41,-1,-1,-1,43,-1,-1,45,-1,-1,-1,-1,-1,-1,-1,-1,-1,-1],"loss_changes":[7.3324127E0,3.3652477E0,3.9808521E0,3.3502743E0,1.187788E0,3.089632E0,1.936728E0,8.355286E-1,2.6938634E0,0E0,1.073875E0,6.746974E-1,1.1053692E0,0E0,9.8164046E-1,0E0,0E0,9.9321663E-1,4.768734E-1,7.420286E-1,0E0,0E0,1.0477571E0,3.3919406E-1,0E0,1.0906655E0,6.495771E-1,0E0,0E0,9.381488E-1,0E0,0E0,0E0,1.6932857E0,0E0,0E0,7.6325786E-1,0E0,0E0,0E0,0E0,0E0,0E0,0E0,0E0,0E0,0E0],"parents":[2147483647,0,0,1,1,2,2,3,3,4,4,5,5,6,6,7,7,8,8,10,10,11,11,12,12,14,14,17,17,18,18,19,19,22,22,23,23,25,25,26,26,29,29,33,33,36,36],"right_children":[2,4,6,8,10,12,14,16,18,-1,20,22,24,-1,26,-1,-1,28,30,32,-1,-1,34,36,-1,38,40,-1,-1,42,-1,-1,-1,44,-1,-1,46,-1,-1,-1,-1,-1,-1,-1,-1,-1,-1],"split_conditions":[2.7598255E0,2E0,6.8154114E-1,7.126067E-1,9.1093004E-1,2E0,4E0,2.4635623E0,1.7951393E0,2.5935918E-1,4E0,1E0,3.9276214E0,-2.519179E-1,3.5258007E0,2.4817283E-1,-7.1457587E-3,8.808098E-1,1.9807949E0,2.145819E0,1.9797055E-1,-2.3459245E-1,3.2658112E0,6.061696E-1,-8.991987E-2,8.6628604E-1,6.9908434E-1,2.0783721E-1,-4.5960985E-2,8.343216E-1,-2.640062E-1,7.929059E-2,-1.7689918E-1,5.9091246E-1,-1.8569057E-1,2.492951E-1,3.1271389E0,1.9432099E-1,-9.553404E-2,2.8831068E-2,-2.2299804E-1,8.1623316E-2,-2.0149173E-1,2.524514E-1,-1.3563876E-1,2.0968528E-1,-2.1617547E-2],"split_indices":[1,3,0,0,0,3,3,1,1,0,3,3,1,0,1,0,0,0,1,1,0,0,1,0,0,0,0,0,0,0,0,0,0,0,0,0,1,0,0,0,0,0,0,0,0,0,0],"split_type":[0,0,0,0,0,0,0,0,0,0,0,0,0,0,0,0,0,0,0,0,0,0,0,0,0,0,0,0,0,0,0,0,0,0,0,0,0,0,0,0,0,0,0,0,0,0,0],"sum_hessian":[5.9897396E1,2.9069431E1,3.0827967E1,1.513914E1,1.3930291E1,1.3383659E1,1.7444307E1,5.1466174E0,9.992522E0,1.0327895E1,3.6023965E0,5.4970737E0,7.8865857E0,1.1799453E1,5.6448545E0,3.6893663E0,1.4572513E0,3.9768014E0,6.015721E0,2.3223197E0,1.2800767E0,2.1195037E0,3.37757E0,6.876214E0,1.0103718E0,2.9193044E0,2.7255502E0,1.823313E0,2.1534884E0,2.3939834E0,3.6217375E0,1.0533937E0,1.268926E0,2.1984735E0,1.1790966E0,3.0503488E0,3.825865E0,1.6458083E0,1.2734962E0,1.1054677E0,1.6200824E0,1.3771544E0,1.016829E0,1.1687903E0,1.029683E0,1.3195984E0,2.5062666E0],"tree_param":{"num_deleted":"0","num_feature":"5","num_nodes":"47","size_leaf_vector":"1"}},{"base_weights":[1.32186E-2,4.522547E-1,-2.0147756E-1,7.072287E-1,-6.035371E-2,-4.825E-1,1.7769368E-1,2.5379634E-1,3.2710773E-1,-2.0518127E-1,2.503836E-1,1.7863491E-1,-6.939884E-1,2.2541945E-1,-5.847805E-2,1.9611262E-1,-4.350528E-2,2.2206314E-1,-8.647332E-2,4.68556E-1,-1.8635798E-1,-3.9954144E-1,-2.772053E-1,2.7328458E-1,-6.345714E-1,6.81822E-2,-8.180402E-2,-7.6397605E-2,2.363844E-1,8.693589E-2,-6.716606E-1,6.535414E-1,-1.6676001E-1,-2.3735343E-2,-2.4683961E-1,-1.9136138E-1,1.6639625E-1,-7.806778E-2,-2.4805327E-1,2.3531036E-1,3.6325376E-2,-1.4482304E-1,4.603443E-2],"categories":[],"categories_nodes":[],"categories_segments":[],"categories_sizes":[],"default_left":[0,0,0,0,0,0,0,0,0,0,0,0,0,0,0,0,0,0,0,0,0,0,0,0,0,0,0,0,0,0,0,0,0,0,0,0,0,0,0,0,0,0,0],"id":10,"left_children":[1,3,5,7,9,11,13,-1,15,-1,17,19,21,-1,23,-1,25,-1,-1,27,-1,29,-1,31,33,-1,-1,-1,-1,35,37,39,41,-1,-1,-1,-1,-1,-1,-1,-1,-1,-1],"loss_changes":[5.0916176E0,2.3601322E0,3.9557962E0,3.5197544E-1,1.4910494E0,3.078238E0,2.23769E0,0E0,6.11619E-1,0E0,1.6058561E0,1.6629148E0,7.289238E-1,0E0,2.5428464E0,0E0,2.6021132E-1,0E0,0E0,1.3353082E0,0E0,1.2329296E0,0E0,1.5422986E0,4.400313E-1,0E0,0E0,0E0,0E0,1.7329011E0,1.5543294E-1,2.3927546E-1,5.564486E-1,0E0,0E0,0E0,0E0,0E0,0E0,0E0,0E0,0E0,0E0],"parents":[2147483647,0,0,1,1,2,2,3,3,4,4,5,5,6,6,8,8,10,10,11,11,12,12,14,14,16,16,19,19,21,21,23,23,24,24,29,29,30,30,31,31,32,32],"right_children":[2,4,6,8,10,12,14,-1,16,-1,18,20,22,-1,24,-1,26,-1,-1,28,-1,30,-1,32,34,-1,-1,-1,-1,36,38,40,42,-1,-1,-1,-1,-1,-1,-1,-1,-1,-1],"split_conditions":[2.3312507E0,8.847465E-1,3E0,7.9495883E-1,1E0,5.93285E-1,6.744341E-1,2.5379634E-1,1.8092488E0,-2.0518127E-1,1.7794107E0,3.6426122E0,7.370869E-1,2.2541945E-1,3.5258007E0,1.9611262E-1,1E0,2.2206314E-1,-8.647332E-2,1E0,-1.8635798E-1,2.8310013E0,-2.772053E-1,8.531211E-1,6.946478E-1,6.81822E-2,-8.180402E-2,-7.6397605E-2,2.363844E-1,1E0,3.0768297E0,3.3293424E0,4E0,-2.3735343E-2,-2.4683961E-1,-1.9136138E-1,1.6639625E-1,-7.806778E-2,-2.4805327E-1,2.3531036E-1,3.6325376E-2,-1.4482304E-1,4.603443E-2],"split_indices":[1,0,3,0,3,0,0,0,1,0,1,1,0,0,1,0,2,0,0,3,0,1,0,0,0,0,0,0,0,3,1,1,3,0,0,0,0,0,0,0,0,0,0],"split_type":[0,0,0,0,0,0,0,0,0,0,0,0,0,0,0,0,0,0,0,0,0,0,0,0,0,0,0,0,0,0,0,0,0,0,0,0,0,0,0,0,0,0,0],"sum_hessian":[5.2050415E1,1.6730803E1,3.5319614E1,1.0919648E1,5.811155E0,2.0128717E1,1.5190895E1,7.1016803E0,3.8179674E0,1.5332439E0,4.2779107E0,4.9160314E0,1.5212687E1,3.7937076E0,1.1397187E1,1.6234511E0,2.1945162E0,2.0444458E0,2.2334652E0,3.9121408E0,1.0038906E0,7.8724895E0,7.3401976E0,7.565795E0,3.8313923E0,1.0097499E0,1.1847663E0,1.2605329E0,2.651608E0,3.0680847E0,4.8044047E0,3.7983482E0,3.7674468E0,1.3292232E0,2.5021691E0,1.060645E0,2.0074396E0,2.0489535E0,2.7554512E0,2.6693654E0,1.1289829E0,1.6407505E0,2.1266963E0],"tree_param":{"num_deleted":"0","num_feature":"5","num_nodes":"43","size_leaf_vector":"1"}},{"base_weights":[7.8327125E-3,2.3251428E-1,-3.6405817E-1,-1.0564553E-1,5.6852937E-1,-1.1616187E-1,-2.5830385E-1,2.0051888E-1,-3.07256E-1,7.80561E-1,4.9309586E-3,-5.0587684E-1,2.5097823E-1,3.1785703E-1,-5.7149804E-1,2.6975536E-1,4.167157E-1,1.7890221E-1,-3.6359924E-1,2.939685E-3,-1.8077824E-1,2.0623842E-1,-8.727765E-2,1.965705E-1,-3.4959376E-2,-3.1488597E-1,-2.2273847E-1,1.9895487E-1,1.5307374E-2,2.6417596E-2,-1.695929E-1,1.6782032E-1,-3.971905E-1,1.1275924E-1,-1.6686831E-1,-2.0393806E-2,-1.9275083E-1],"categories":[],"categories_nodes":[],"categories_segments":[],"categories_sizes":[],"default_left":[0,0,0,0,0,0,0,0,0,0,0,0,0,0,0,0,0,0,0,0,0,0,0,0,0,0,0,0,0,0,0,0,0,0,0,0,0],"id":11,"left_children":[1,3,5,7,9,11,-1,-1,13,15,17,19,21,23,25,-1,27,-1,29,-1,-1,-1,31,-1,-1,33,-1,-1,-1,-1,-1,-1,35,-1,-1,-1,-1],"loss_changes":[3.968028E0,3.4214046E0,2.104341E0,2.6378582E0,1.7880516E0,2.0004904E0,0E0,0E0,2.33751E0,9.529066E-2,1.3295779E0,3.3924007E-1,1.1541533E0,7.38834E-1,1.8434906E-1,0E0,3.7545258E-1,0E0,3.9293826E-1,0E0,0E0,0E0,1.2367944E0,0E0,0E0,1.1338522E0,0E0,0E0,0E0,0E0,0E0,0E0,2.7994162E-1,0E0,0E0,0E0,0E0],"parents":[2147483647,0,0,1,1,2,2,3,3,4,4,5,5,8,8,9,9,10,10,11,11,12,12,13,13,14,14,16,16,18,18,22,22,25,25,32,32],"right_children":[2,4,6,8,10,12,-1,-1,14,16,18,20,22,24,26,-1,28,-1,30,-1,-1,-1,32,-1,-1,34,-1,-1,-1,-1,-1,-1,36,-1,-1,-1,-1],"split_conditions":[3.068395E0,2E0,7.59419E-1,6.123024E-1,9.0183604E-1,3E0,-2.5830385E-1,2.0051888E-1,1.7951393E0,8.129299E-1,2.1032782E0,5.2815163E-1,3.5330713E0,8.808098E-1,2.4635623E0,2.6975536E-1,2.5076983E0,1.7890221E-1,1E0,2.939685E-3,-1.8077824E-1,2.0623842E-1,6.3998955E-1,1.965705E-1,-3.4959376E-2,7.686978E-1,-2.2273847E-1,1.9895487E-1,1.5307374E-2,2.6417596E-2,-1.695929E-1,1.6782032E-1,6.946478E-1,1.1275924E-1,-1.6686831E-1,-2.0393806E-2,-1.9275083E-1],"split_indices":[1,3,0,0,0,3,0,0,1,0,1,0,1,0,1,0,1,0,4,0,0,0,0,0,0,0,0,0,0,0,0,0,0,0,0,0,0],"split_type":[0,0,0,0,0,0,0,0,0,0,0,0,0,0,0,0,0,0,0,0,0,0,0,0,0,0,0,0,0,0,0,0,0,0,0,0,0],"sum_hessian":[4.5475796E1,2.8582296E1,1.68935E1,1.4587391E1,1.3994905E1,1.2094258E1,4.799241E0,2.5359292E0,1.2051462E1,9.889438E0,4.1054683E0,5.683453E0,6.410805E0,3.5204024E0,8.531059E0,6.348359E0,3.541078E0,1.3388116E0,2.7666569E0,1.0395384E0,4.6439147E0,2.3482578E0,4.062547E0,1.6952993E0,1.8251033E0,4.5473814E0,3.9836776E0,1.6293976E0,1.9116805E0,1.0280806E0,1.7385763E0,1.055359E0,3.0071886E0,1.0331068E0,3.5142746E0,1.8293278E0,1.1778606E0],"tree_param":{"num_deleted":"0","num_feature":"5","num_nodes":"37","size_leaf_vector":"1"}},{"base_weights":[1.5709862E-2,5.509899E-1,-1.10482536E-1,2.0667829E-2,2.3909965E-1,-6.539311E-1,2.2607626E-2,1.4675528E-1,-1.7103961E-1,-1.3935178E-2,-2.2819804E-1,2.4303892E-1,-3.5339206E-1,5.072428E-1,-2.8428233E-1,-5.761551E-1,1.9568485E-1,2.4489209E-1,3.3634877E-1,-5.134811E-1,7.5638615E-2,-2.2336543E-1,-2.2633272E-1,1.6916654E-1,-1.2787107E-1,2.556841E-2,2.0304744E-1,4.588238E-3,-2.1345383E-1,1.2447638E-1,-1.0731068E-1,1.17920294E-1,-1.6511583E-1],"categories":[],"categories_nodes":[],"categories_segments":[],"categories_sizes":[],"default_left":[0,0,0,0,0,0,0,0,0,0,0,0,0,0,0,0,0,0,0,0,0,0,0,0,0,0,0,0,0,0,0,0,0],"id":12,"left_children":[1,3,5,7,-1,9,11,-1,-1,-1,-1,13,15,17,19,21,23,-1,25,27,29,31,-1,-1,-1,-1,-1,-1,-1,-1,-1,-1,-1],"loss_changes":[2.8407524E0,1.0296092E0,2.483744E0,1.266374E0,0E0,4.022231E-1,2.4386697E0,0E0,0E0,0E0,0E0,2.7199807E0,1.4458336E0,3.9495587E-1,6.00787E-1,3.3509898E-1,1.1316018E0,0E0,7.8564787E-1,4.601252E-1,6.662182E-1,1.0445697E0,0E0,0E0,0E0,0E0,0E0,0E0,0E0,0E0,0E0,0E0,0E0],"parents":[2147483647,0,0,1,1,2,2,3,3,5,5,6,6,11,11,12,12,13,13,14,14,15,15,16,16,18,18,19,19,20,20,21,21],"right_children":[2,4,6,8,-1,10,12,-1,-1,-1,-1,14,16,18,20,22,24,-1,26,28,30,32,-1,-1,-1,-1,-1,-1,-1,-1,-1,-1,-1],"split_conditions":[1.8577204E0,1E0,1E0,8.808098E-1,2.3909965E-1,5.7595134E-1,8.058604E-1,1.4675528E-1,-1.7103961E-1,-1.3935178E-2,-2.2819804E-1,3.5330713E0,4E0,6.025698E-1,4E0,2.5380654E0,2.965726E0,2.4489209E-1,3E0,5.507358E-1,6.9336766E-1,1E0,-2.2633272E-1,1.6916654E-1,-1.2787107E-1,2.556841E-2,2.0304744E-1,4.588238E-3,-2.1345383E-1,1.2447638E-1,-1.0731068E-1,1.17920294E-1,-1.6511583E-1],"split_indices":[1,3,3,0,0,0,0,0,0,0,0,1,3,0,3,1,1,0,3,0,0,4,0,0,0,0,0,0,0,0,0,0,0],"split_type":[0,0,0,0,0,0,0,0,0,0,0,0,0,0,0,0,0,0,0,0,0,0,0,0,0,0,0,0,0,0,0,0,0],"sum_hessian":[4.015394E1,7.0181665E0,3.313577E1,2.5674717E0,4.450695E0,5.748679E0,2.738709E1,1.5278511E0,1.0396206E0,1.0735372E0,4.675142E0,1.7488192E1,9.898901E0,1.1676159E1,5.8120317E0,7.0068665E0,2.892034E0,2.8126884E0,8.86347E0,3.2901833E0,2.5218484E0,3.108566E0,3.8983006E0,1.8751688E0,1.0168654E0,5.820693E0,3.0427775E0,1.1478951E0,2.1422882E0,1.438268E0,1.0835806E0,1.007488E0,2.101078E0],"tree_param":{"num_deleted":"0","num_feature":"5","num_nodes":"33","size_leaf_vector":"1"}},{"base_weights":[1.381786E-2,2.8458735E-1,-2.3931724E-1,-1.465245E-1,4.597244E-1,-7.027336E-4,-5.3944975E-1,2.743493E-1,-4.8413995E-1,6.696872E-1,1.2932886E-1,-4.3536413E-1,2.6421413E-1,-2.0853946E-1,-1.6605614E-1,1.7126776E-1,-5.072837E-2,-4.751291E-2,-1.7082661E-1,2.2277091E-1,6.887759E-2,1.8051502E-1,-1.0487449E-1,-1.3970478E-1,-1.8651825E-1,4.8883614E-1,-1.3531968E-1,4.2179972E-2,-1.3458236E-1,-1.5874787E-1,1.1264431E-1,1.0312658E-2,-7.599144E-2,2.3155259E-1,2.299774E-1,1.8025401E-1,-1.7481353E-2],"categories":[],"categories_nodes":[],"categories_segments":[],"categories_sizes":[],"default_left":[0,0,0,0,0,0,0,0,0,0,0,0,0,0,0,0,0,0,0,0,0,0,0,0,0,0,0,0,0,0,0,0,0,0,0,0,0],"id":13,"left_children":[1,3,5,7,9,11,13,15,17,19,21,23,25,-1,27,-1,-1,-1,-1,-1,-1,-1,29,31,-1,33,-1,-1,-1,-1,-1,-1,-1,35,-1,-1,-1],"loss_changes":[2.6164544E0,1.4582099E0,1.4146674E0,9.967336E-1,8.38871E-1,1.4978335E0,3.9321136E-1,5.3634286E-1,1.3591051E-2,8.348012E-2,7.737318E-1,1.8451965E-1,1.5192744E0,0E0,4.0000403E-1,0E0,0E0,0E0,0E0,0E0,0E0,0E0,1.2474345E0,7.1871325E-2,0E0,2.9640532E-1,0E0,0E0,0E0,0E0,0E0,0E0,0E0,5.568361E-1,0E0,0E0,0E0],"parents":[2147483647,0,0,1,1,2,2,3,3,4,4,5,5,6,6,7,7,8,8,9,9,10,10,11,11,12,12,14,14,22,22,23,23,25,25,33,33],"right_children":[2,4,6,8,10,12,14,16,18,20,22,24,26,-1,28,-1,-1,-1,-1,-1,-1,-1,30,32,-1,34,-1,-1,-1,-1,-1,-1,-1,36,-1,-1,-1],"split_conditions":[2.7598255E0,1E0,7.044765E-1,7.747644E-1,8.737355E-1,2E0,4E0,2.3312507E0,1.640534E0,2.5571795E0,1.7794107E0,1E0,3.8498836E0,-2.0853946E-1,3.3844287E0,1.7126776E-1,-5.072837E-2,-4.751291E-2,-1.7082661E-1,2.2277091E-1,6.887759E-2,1.8051502E-1,3E0,1E0,-1.8651825E-1,4E0,-1.3531968E-1,4.2179972E-2,-1.3458236E-1,-1.5874787E-1,1.1264431E-1,1.0312658E-2,-7.599144E-2,6.061696E-1,2.299774E-1,1.8025401E-1,-1.7481353E-2],"split_indices":[1,3,0,0,0,3,3,1,1,1,1,2,1,0,1,0,0,0,0,0,0,0,3,4,0,3,0,0,0,0,0,0,0,0,0,0,0],"split_type":[0,0,0,0,0,0,0,0,0,0,0,0,0,0,0,0,0,0,0,0,0,0,0,0,0,0,0,0,0,0,0,0,0,0,0,0,0],"sum_hessian":[3.617976E1,1.7420948E1,1.875881E1,5.0798707E0,1.2341078E1,1.1008811E1,7.7499995E0,2.3445408E0,2.7353299E0,6.9179E0,5.4231777E0,3.9251826E0,7.0836287E0,4.861429E0,2.88857E0,1.2327561E0,1.1117847E0,1.1602918E0,1.5750382E0,5.34538E0,1.5725204E0,1.2774191E0,4.1457586E0,2.1940424E0,1.7311403E0,5.6316733E0,1.4519554E0,1.6261194E0,1.2624507E0,2.1474097E0,1.998349E0,1.1417803E0,1.0522622E0,3.875484E0,1.7561893E0,1.2322294E0,2.6432548E0],"tree_param":{"num_deleted":"0","num_feature":"5","num_nodes":"37","size_leaf_vector":"1"}},{"base_weights":[1.3237386E-2,2.0164114E-1,-2.9722485E-1,-7.110613E-2,4.8273245E-1,-1.0963571E-1,-2.2499329E-1,4.128932E-1,-2.971909E-1,2.0924781E-1,-3.1349175E-2,-4.136757E-1,1.9215783E-1,1.8708752E-1,-3.2454465E-2,8.305072E-2,-6.635862E-1,9.976399E-2,-7.959169E-2,-1.5146461E-2,-5.27811E-1,1.811809E-1,-5.1243104E-2,1.4130472E-1,-2.8454643E-1,-4.57592E-2,-2.3138417E-1,-5.4768573E-2,-1.9609924E-1,1.2644504E-1,-3.4133643E-1,1.7718805E-2,-1.468399E-1,-1.4861485E-2,-1.46758E-1],"categories":[],"categories_nodes":[],"categories_segments":[],"categories_sizes":[],"default_left":[0,0,0,0,0,0,0,0,0,0,0,0,0,0,0,0,0,0,0,0,0,0,0,0,0,0,0,0,0,0,0,0,0,0,0],"id":14,"left_children":[1,3,5,7,9,11,-1,13,15,-1,17,19,21,-1,-1,23,25,-1,-1,-1,27,-1,29,-1,31,-1,-1,-1,-1,-1,33,-1,-1,-1,-1],"loss_changes":[2.0552528E0,1.7076008E0,1.0462844E0,1.4301881E0,1.2226903E0,1.0489957E0,0E0,5.311666E-1,1.2707751E0,0E0,4.4255185E-1,2.0468062E-1,6.308473E-1,0E0,0E0,8.714507E-1,1.3305473E-1,0E0,0E0,0E0,6.056893E-2,0E0,7.8615105E-1,0E0,2.5975353E-1,0E0,0E0,0E0,0E0,0E0,1.2483001E-1,0E0,0E0,0E0,0E0],"parents":[2147483647,0,0,1,1,2,2,3,3,4,4,5,5,7,7,8,8,10,10,11,11,12,12,15,15,16,16,20,20,22,22,24,24,30,30],"right_children":[2,4,6,8,10,12,-1,14,16,-1,18,20,22,-1,-1,24,26,-1,-1,-1,28,-1,30,-1,32,-1,-1,-1,-1,-1,34,-1,-1,-1,-1],"split_conditions":[3.068395E0,2E0,7.59419E-1,6.600248E-1,9.0183604E-1,3E0,-2.2499329E-1,2.777051E0,1.9807949E0,2.0924781E-1,2.19077E0,5.4891706E-1,6.409274E-1,1.8708752E-1,-3.2454465E-2,8.6297786E-1,7.126067E-1,9.976399E-2,-7.959169E-2,-1.5146461E-2,3.3471565E0,1.811809E-1,3.5330713E0,1.4130472E-1,1.5092738E0,-4.57592E-2,-2.3138417E-1,-5.4768573E-2,-1.9609924E-1,1.2644504E-1,1E0,1.7718805E-2,-1.468399E-1,-1.4861485E-2,-1.46758E-1],"split_indices":[1,3,0,0,0,3,0,1,1,0,1,0,0,0,0,0,0,0,0,0,1,0,1,0,1,0,0,0,0,0,2,0,0,0,0],"split_type":[0,0,0,0,0,0,0,0,0,0,0,0,0,0,0,0,0,0,0,0,0,0,0,0,0,0,0,0,0,0,0,0,0,0,0],"sum_hessian":[3.3112553E1,2.0825268E1,1.2287284E1,1.0948654E1,9.876614E0,9.5659685E0,2.7213159E0,3.2228794E0,7.725775E0,6.714728E0,3.161886E0,4.580574E0,4.985394E0,2.1546824E0,1.068197E0,4.170745E0,3.5550299E0,1.072428E0,2.089458E0,1.4401759E0,3.1403983E0,1.3018025E0,3.6835916E0,1.8922803E0,2.2784646E0,1.0393239E0,2.5157058E0,1.493612E0,1.6467862E0,1.2285931E0,2.4549985E0,1.1170965E0,1.1613679E0,1.2745986E0,1.1803999E0],"tree_param":{"num_deleted":"0","num_feature":"5","num_nodes":"35","size_leaf_vector":"1"}},{"base_weights":[2.9112739E-3,-3.8915166E-1,1.14743486E-1,-5.3235713E-2,-2.1009164E-1,2.9694322E-1,-2.563858E-1,1.4035757E-1,-1.1954499E-1,5.4195046E-1,7.3418417E-3,-4.6454743E-1,1.00757405E-1,2.3631787E-1,3.6247393E-1,1.6143335E-1,-1.9167224E-1,6.6551897E-3,-2.069557E-1,1.3513294E-1,-9.100225E-2,1.68361E-1,-8.847275E-4,-4.2833194E-1,9.7645886E-2,-1.0684834E-1,8.45601E-2,-1.6687539E-1,-2.4934521E-2],"categories":[],"categories_nodes":[],"categories_segments":[],"categories_sizes":[],"default_left":[0,0,0,0,0,0,0,0,0,0,0,0,0,0,0,0,0,0,0,0,0,0,0,0,0,0,0,0,0],"id":15,"left_children":[1,3,5,7,-1,9,11,-1,-1,13,15,17,19,-1,21,-1,23,-1,-1,-1,-1,-1,25,27,-1,-1,-1,-1,-1],"loss_changes":[1.4054176E0,7.064538E-1,1.7612141E0,9.967202E-1,0E0,1.2148565E0,6.9673884E-1,0E0,0E0,1.2432933E-1,1.0417906E0,6.4053154E-1,7.076507E-1,0E0,5.220303E-1,0E0,1.020657E0,0E0,0E0,0E0,0E0,0E0,4.5720282E-1,1.9097286E-1,0E0,0E0,0E0,0E0,0E0],"parents":[2147483647,0,0,1,1,2,2,3,3,5,5,6,6,9,9,10,10,11,11,12,12,14,14,16,16,22,22,23,23],"right_children":[2,4,6,8,-1,10,12,-1,-1,14,16,18,20,-1,22,-1,24,-1,-1,-1,-1,-1,26,28,-1,-1,-1,-1,-1],"split_conditions":[1E0,2.4506369E0,3.2658112E0,7.747644E-1,-2.1009164E-1,8.1003636E-1,4E0,1.4035757E-1,-1.1954499E-1,6.143991E-1,1.8577204E0,6.061696E-1,6.946478E-1,2.3631787E-1,2.870757E0,1.6143335E-1,4E0,6.6551897E-3,-2.069557E-1,1.3513294E-1,-9.100225E-2,1.68361E-1,6.766761E-1,3E0,9.7645886E-2,-1.0684834E-1,8.45601E-2,-1.6687539E-1,-2.4934521E-2],"split_indices":[3,1,1,0,0,0,3,0,0,0,1,0,0,0,1,0,3,0,0,0,0,0,0,3,0,0,0,0,0],"split_type":[0,0,0,0,0,0,0,0,0,0,0,0,0,0,0,0,0,0,0,0,0,0,0,0,0,0,0,0,0],"sum_hessian":[3.003562E1,6.115618E0,2.3920002E1,3.50393E0,2.6116881E0,1.6177715E1,7.742286E0,1.2548307E0,2.2490993E0,8.291559E0,7.8861556E0,4.701359E0,3.0409276E0,2.0691035E0,6.2224565E0,1.6859233E0,6.2002325E0,1.7728871E0,2.9284716E0,1.5687368E0,1.4721907E0,3.6704907E0,2.5519657E0,4.371517E0,1.8287148E0,1.0158851E0,1.5360805E0,2.74358E0,1.6279372E0],"tree_param":{"num_deleted":"0","num_feature":"5","num_nodes":"29","size_leaf_vector":"1"}},{"base_weights":[5.832963E-3,3.2068408E-1,-1.251925E-1,5.027788E-1,-1.6235533E-1,-3.313421E-1,1.355131E-1,1.3972992E-1,1.9915408E-1,1.2965621E-2,-8.464072E-2,-5.9478406E-2,-2.1006143E-1,1.636977E-1,-2.0524982E-2,1.1925683E-1,-5.6278545E-2,1.4183006E-1,-1.3779776E-1,1.8960394E-1,-4.027148E-1,-1.018776E-1,3.8365966E-1,3.9828214E-1,-9.4710216E-2,-1.9447898E-2,-1.6769096E-1,2.0112468E-1,-2.628013E-2,1.5181899E-1,1.10643385E-2],"categories":[],"categories_nodes":[],"categories_segments":[],"categories_sizes":[],"default_left":[0,0,0,0,0,0,0,0,0,0,0,0,0,0,0,0,0,0,0,0,0,0,0,0,0,0,0,0,0,0,0],"id":16,"left_children":[1,3,5,7,9,11,13,15,-1,-1,-1,17,-1,-1,19,-1,-1,21,-1,23,25,-1,27,29,-1,-1,-1,-1,-1,-1,-1],"loss_changes":[1.2250513E0,8.487347E-1,1.1736033E0,2.9187357E-1,8.95987E-2,1.163524E0,6.5011466E-1,3.5202193E-1,0E0,0E0,0E0,7.1001625E-1,0E0,0E0,7.345451E-1,0E0,0E0,8.3962345E-1,0E0,7.5505173E-1,1.3416976E-1,0E0,6.702374E-1,1.6308522E-1,0E0,0E0,0E0,0E0,0E0,0E0,0E0],"parents":[2147483647,0,0,1,1,2,2,3,3,4,4,5,5,6,6,7,7,11,11,14,14,17,17,19,19,20,20,22,22,23,23],"right_children":[2,4,6,8,10,12,14,16,-1,-1,-1,18,-1,-1,20,-1,-1,22,-1,24,26,-1,28,30,-1,-1,-1,-1,-1,-1,-1],"split_conditions":[2.2845988E0,9.2773026E-1,3E0,1E0,1.6614586E0,6.982714E-1,6.744341E-1,7.9544646E-1,1.9915408E-1,1.2965621E-2,-8.464072E-2,3.3471565E0,-2.1006143E-1,1.636977E-1,3.5258007E0,1.1925683E-1,-5.6278545E-2,1E0,-1.3779776E-1,9.3868655E-1,6.946478E-1,-1.018776E-1,1E0,3.1919515E0,-9.4710216E-2,-1.9447898E-2,-1.6769096E-1,2.0112468E-1,-2.628013E-2,1.5181899E-1,1.10643385E-2],"split_indices":[1,0,3,3,1,0,0,0,0,0,0,1,0,0,1,0,0,3,0,0,0,0,2,1,0,0,0,0,0,0,0],"split_type":[0,0,0,0,0,0,0,0,0,0,0,0,0,0,0,0,0,0,0,0,0,0,0,0,0,0,0,0,0,0,0],"sum_hessian":[2.77225E1,7.7211833E0,2.0001316E1,5.5776663E0,2.1435168E0,1.1018018E1,8.983299E0,2.2880046E0,3.289662E0,1.0244609E0,1.1190557E0,7.0115366E0,4.006481E0,1.7876093E0,7.19569E0,1.1599776E0,1.1280271E0,5.0927925E0,1.918744E0,4.968111E0,2.227579E0,1.5676779E0,3.5251145E0,3.6659596E0,1.3021516E0,1.1517947E0,1.0757843E0,1.9288384E0,1.5962762E0,2.515482E0,1.1504776E0],"tree_param":{"num_deleted":"0","num_feature":"5","num_nodes":"31","size_leaf_vector":"1"}},{"base_weights":[3.391914E-3,2.0346452E-1,-1.8052536E-1,-2.4121061E-2,4.5454925E-1,-3.434901E-2,-1.7528564E-1,4.2238358E-1,-2.5438634E-1,1.7312656E-1,2.0119308E-1,-4.0501353E-1,1.5478829E-1,1.565184E-1,3.4016814E-2,5.0078645E-2,-5.048457E-1,1.03888765E-1,-5.3529497E-2,-3.914015E-2,-1.540432E-1,3.135286E-1,-1.2639982E-1,-5.1663283E-2,-1.9047397E-1,4.4812304E-1,-1.0560878E-2,6.85471E-2,1.9446991E-1],"categories":[],"categories_nodes":[],"categories_segments":[],"categories_sizes":[],"default_left":[0,0,0,0,0,0,0,0,0,0,0,0,0,0,0,0,0,0,0,0,0,0,0,0,0,0,0,0,0],"id":17,"left_children":[1,3,5,7,9,11,-1,13,15,17,-1,19,21,-1,-1,-1,23,-1,-1,-1,-1,25,-1,-1,-1,27,-1,-1,-1],"loss_changes":[1.0201825E0,7.693231E-1,8.3308893E-1,9.2081E-1,2.7068353E-1,8.812201E-1,0E0,3.5004795E-2,7.008865E-1,3.1203464E-1,0E0,5.870998E-2,9.052726E-1,0E0,0E0,0E0,5.997002E-2,0E0,0E0,0E0,0E0,3.5378844E-1,0E0,0E0,0E0,8.345246E-2,0E0,0E0,0E0],"parents":[2147483647,0,0,1,1,2,2,3,3,4,4,5,5,7,7,8,8,9,9,11,11,12,12,16,16,21,21,25,25],"right_children":[2,4,6,8,10,12,-1,14,16,18,-1,20,22,-1,-1,-1,24,-1,-1,-1,-1,26,-1,-1,-1,28,-1,-1,-1],"split_conditions":[2.7598255E0,2E0,7.9842144E-1,7.194857E-1,1E0,2E0,-1.7528564E-1,2.3956168E0,1.7951393E0,9.4385207E-1,2.0119308E-1,5.8615994E-1,3.8498836E0,1.565184E-1,3.4016814E-2,5.0078645E-2,1.9807949E0,1.03888765E-1,-5.3529497E-2,-3.914015E-2,-1.540432E-1,7.044765E-1,-1.2639982E-1,-5.1663283E-2,-1.9047397E-1,4E0,-1.0560878E-2,6.85471E-2,1.9446991E-1],"split_indices":[1,3,0,0,2,3,0,1,1,0,0,0,1,0,0,0,1,0,0,0,0,0,0,0,0,3,0,0,0],"split_type":[0,0,0,0,0,0,0,0,0,0,0,0,0,0,0,0,0,0,0,0,0,0,0,0,0,0,0,0,0],"sum_hessian":[2.5726555E1,1.2271185E1,1.3455371E1,6.9109592E0,5.3602257E0,1.0675508E1,2.7798629E0,2.0675204E0,4.8434386E0,3.110517E0,2.2497087E0,3.221248E0,7.45426E0,1.0435408E0,1.0239795E0,1.9301343E0,2.9133043E0,2.0940206E0,1.0164965E0,1.5360419E0,1.685206E0,6.2013717E0,1.2528884E0,1.4722316E0,1.4410728E0,4.2688007E0,1.9325707E0,3.0562294E0,1.2125716E0],"tree_param":{"num_deleted":"0","num_feature":"5","num_nodes":"29","size_leaf_vector":"1"}},{"base_weights":[2.9839438E-3,3.566261E-1,-8.73433E-2,4.6415678E-1,-9.217608E-3,-2.0288044E-1,2.7221867E-1,2.6818365E-3,1.8213916E-1,1.8123162E-1,-3.8067174E-1,4.4832003E-1,-6.571158E-2,-1.313939E-1,1.3028875E-1,-2.2044797E-1,-1.9760735E-1,1.6384587E-1,2.6472729E-2,4.895352E-2,-1.17087565E-1,2.1454645E-2,-1.4221969E-1,-1.0656476E-1,1.2527895E-1],"categories":[],"categories_nodes":[],"categories_segments":[],"categories_sizes":[],"default_left":[0,0,0,0,0,0,0,0,0,0,0,0,0,0,0,0,0,0,0,0,0,0,0,0,0],"id":18,"left_children":[1,3,5,7,-1,9,11,-1,-1,13,15,17,-1,19,-1,21,-1,-1,-1,-1,-1,23,-1,-1,-1],"loss_changes":[8.3812046E-1,2.3653704E-1,9.245508E-1,2.7046555E-1,0E0,1.189662E0,5.7538736E-1,0E0,0E0,5.214458E-1,3.688593E-1,1.0640538E-1,0E0,3.2249692E-1,0E0,5.5153847E-1,0E0,0E0,0E0,0E0,0E0,9.650023E-1,0E0,0E0,0E0],"parents":[2147483647,0,0,1,1,2,2,3,3,5,5,6,6,9,9,10,10,11,11,13,13,15,15,21,21],"right_children":[2,4,6,8,-1,10,12,-1,-1,14,16,18,-1,20,-1,22,-1,-1,-1,-1,-1,24,-1,-1,-1],"split_conditions":[6.1098605E-1,3.6122496E0,4E0,1E0,-9.217608E-3,2.1131163E0,3.6585875E0,2.6818365E-3,1.8213916E-1,1E0,3.1919515E0,9.1093004E-1,-6.571158E-2,8.6297786E-1,1.3028875E-1,7.9842144E-1,-1.9760735E-1,1.6384587E-1,2.6472729E-2,4.895352E-2,-1.17087565E-1,2E0,-1.4221969E-1,-1.0656476E-1,1.2527895E-1],"split_indices":[0,1,3,3,0,1,1,0,0,3,1,0,0,0,0,0,0,0,0,0,0,3,0,0,0],"split_type":[0,0,0,0,0,0,0,0,0,0,0,0,0,0,0,0,0,0,0,0,0,0,0,0,0],"sum_hessian":[2.426245E1,4.336473E0,1.9925978E1,3.2390213E0,1.0974518E0,1.5410058E1,4.5159183E0,1.0281132E0,2.2109082E0,4.8697596E0,1.0540298E1,3.3886054E0,1.127313E0,2.393595E0,2.4761646E0,7.8241377E0,2.7161613E0,2.2582703E0,1.1303351E0,1.2926016E0,1.1009935E0,4.473081E0,3.3510566E0,2.345848E0,2.1272328E0],"tree_param":{"num_deleted":"0","num_feature":"5","num_nodes":"25","size_leaf_vector":"1"}},{"base_weights":[4.0487396E-3,1.4145894E-1,-2.1764609E-1,2.4485642E-1,-2.4358554E-1,-6.5043084E-2,-1.5836369E-1,9.247023E-2,1.7498475E-1,-8.096149E-3,-1.11224085E-1,-3.3729634E-1,2.3323709E-1,3.2248095E-1,-1.715978E-1,-1.6072894E-2,-1.4329644E-1,1.19141795E-1,-2.2604974E-2,4.5097542E-1,-8.48088E-3,9.3621254E-2,-4.2347044E-1,1.6773434E-1,5.063705E-2,-5.0386023E-2,-1.7243733E-1],"categories":[],"categories_nodes":[],"categories_segments":[],"categories_sizes":[],"default_left":[0,0,0,0,0,0,0,0,0,0,0,0,0,0,0,0,0,0,0,0,0,0,0,0,0,0,0],"id":19,"left_children":[1,3,5,7,9,11,-1,13,-1,-1,-1,15,17,19,21,-1,-1,-1,-1,23,-1,-1,25,-1,-1,-1,-1],"loss_changes":[7.588339E-1,6.7118E-1,4.172592E-1,5.9624845E-1,9.336084E-2,6.90515E-1,0E0,6.555258E-1,0E0,0E0,0E0,1.4754987E-1,2.416697E-1,2.6642907E-1,7.720742E-1,0E0,0E0,0E0,0E0,3.313452E-2,0E0,0E0,5.3420424E-2,0E0,0E0,0E0,0E0],"parents":[2147483647,0,0,1,1,2,2,3,3,4,4,5,5,7,7,11,11,12,12,13,13,14,14,19,19,22,22],"right_children":[2,4,6,8,10,12,-1,14,-1,-1,-1,16,18,20,22,-1,-1,-1,-1,24,-1,-1,26,-1,-1,-1,-1],"split_conditions":[3.068395E0,9.4385207E-1,7.32799E-1,3E0,9.736243E-1,3E0,-1.5836369E-1,7.728084E-1,1.7498475E-1,-8.096149E-3,-1.11224085E-1,1E0,3.801625E0,2.779133E0,1.8784661E0,-1.6072894E-2,-1.4329644E-1,1.19141795E-1,-2.2604974E-2,2.4635623E0,-8.48088E-3,9.3621254E-2,2.318215E0,1.6773434E-1,5.063705E-2,-5.0386023E-2,-1.7243733E-1],"split_indices":[1,0,0,3,0,3,0,0,0,0,0,2,1,1,1,0,0,0,0,1,0,0,1,0,0,0,0],"split_type":[0,0,0,0,0,0,0,0,0,0,0,0,0,0,0,0,0,0,0,0,0,0,0,0,0,0,0],"sum_hessian":[2.2899246E1,1.4360368E1,8.538878E0,1.1607456E1,2.7529116E0,6.5343175E0,2.0045607E0,8.881526E0,2.72593E0,1.4667586E0,1.2861531E0,3.3478165E0,3.186501E0,4.628643E0,4.252883E0,1.5653445E0,1.7824719E0,1.8937162E0,1.2927849E0,3.1784873E0,1.4501556E0,1.3744799E0,2.8784032E0,1.588405E0,1.5900822E0,1.8553735E0,1.0230297E0],"tree_param":{"num_deleted":"0","num_feature":"5","num_nodes":"27","size_leaf_vector":"1"}},{"base_weights":[-8.760209E-5,-3.1240886E-1,9.183652E-2,-8.027123E-2,-1.7927383E-1,1.9419925E-1,-2.3257212E-1,7.283916E-2,-1.0864372E-1,3.8056105E-1,-3.894229E-2,3.8906753E-2,-3.7583533E-1,2.2136106E-1,1.730682E-1,1.450469E-1,-1.2760139E-1,-1.5861002E-1,-2.7639082E-2,1.4100003E-1,-1.725736E-2,-9.901093E-2,1.158872E-1,1.3058327E-1,-9.271525E-2,4.6346784E-2,-7.8428306E-2],"categories":[],"categories_nodes":[],"categories_segments":[],"categories_sizes":[],"default_left":[0,0,0,0,0,0,0,0,0,0,0,0,0,0,0,0,0,0,0,0,0,0,0,0,0,0,0],"id":20,"left_children":[1,3,5,7,-1,9,11,-1,-1,13,15,-1,17,19,-1,21,-1,-1,-1,-1,23,25,-1,-1,-1,-1,-1],"loss_changes":[6.810113E-1,3.091011E-1,6.537648E-1,4.6389803E-1,0E0,6.4379793E-1,3.0049732E-1,0E0,0E0,1.2666571E-1,5.8338577E-1,0E0,1.13173366E-1,3.7101257E-1,0E0,3.7483847E-1,0E0,0E0,0E0,0E0,6.740417E-1,1.901663E-1,0E0,0E0,0E0,0E0,0E0],"parents":[2147483647,0,0,1,1,2,2,3,3,5,5,6,6,9,9,10,10,12,12,13,13,15,15,20,20,21,21],"right_children":[2,4,6,8,-1,10,12,-1,-1,14,16,-1,18,20,-1,22,-1,-1,-1,-1,24,26,-1,-1,-1,-1,-1],"split_conditions":[1E0,2.5868113E0,3.5330713E0,7.9544646E-1,-1.7927383E-1,8.058604E-1,5.507358E-1,7.283916E-2,-1.0864372E-1,3E0,2.7598255E0,3.8906753E-2,4E0,2.777051E0,1.730682E-1,3E0,-1.2760139E-1,-1.5861002E-1,-2.7639082E-2,1.4100003E-1,6.0467464E-1,1.892047E0,1.158872E-1,1.3058327E-1,-9.271525E-2,4.6346784E-2,-7.8428306E-2],"split_indices":[3,1,1,0,0,0,0,0,0,3,1,0,3,1,0,3,0,0,0,0,0,1,0,0,0,0,0],"split_type":[0,0,0,0,0,0,0,0,0,0,0,0,0,0,0,0,0,0,0,0,0,0,0,0,0,0,0],"sum_hessian":[2.1721142E1,4.393896E0,1.7327248E1,3.128602E0,1.265294E0,1.3476344E1,3.8509023E0,1.5223757E0,1.6062263E0,7.1381464E0,6.338198E0,1.1181785E0,2.7327237E0,5.1166773E0,2.0214689E0,4.716817E0,1.6213814E0,1.21468E0,1.5180439E0,2.03086E0,3.0858173E0,2.637814E0,2.0790026E0,1.0169399E0,2.0688775E0,1.049134E0,1.5886801E0],"tree_param":{"num_deleted":"0","num_feature":"5","num_nodes":"27","size_leaf_vector":"1"}},{"base_weights":[-2.4355701E-3,-1.9561392E-1,1.3952006E-1,6.89428E-2,-3.2970148E-1,2.154736E-1,-9.859488E-2,-1.984994E-2,-1.5771744E-1,4.607574E-1,3.625325E-2,1.2531716E-1,-9.63719E-2,1.6852257E-1,2.1458402E-1,3.066586E-1,-2.819421E-1,1.356144E-1,-3.7441883E-2,4.2021878E-2,1.6141123E-1,-1.2022229E-1,-2.2665298E-2,7.337475E-2,-4.776199E-2],"categories":[],"categories_nodes":[],"categories_segments":[],"categories_sizes":[],"default_left":[0,0,0,0,0,0,0,0,0,0,0,0,0,0,0,0,0,0,0,0,0,0,0,0,0],"id":21,"left_children":[1,3,5,-1,7,9,-1,11,-1,13,15,-1,-1,-1,17,19,21,-1,-1,23,-1,-1,-1,-1,-1],"loss_changes":[6.1843294E-1,6.2037975E-1,5.33417E-1,0E0,4.5542246E-1,5.019078E-1,0E0,6.6319996E-1,0E0,1.155138E-3,7.663689E-1,0E0,0E0,0E0,3.015911E-1,2.6829094E-1,7.150805E-2,0E0,0E0,1.734857E-1,0E0,0E0,0E0,0E0,0E0],"parents":[2147483647,0,0,1,1,2,2,4,4,5,5,7,7,9,9,10,10,14,14,15,15,16,16,19,19],"right_children":[2,4,6,-1,8,10,-1,12,-1,14,16,-1,-1,-1,18,20,22,-1,-1,24,-1,-1,-1,-1,-1],"split_conditions":[2E0,1.7951393E0,3.8498836E0,6.89428E-2,6.5068895E-1,7.087055E-1,-9.859488E-2,2.777051E0,-1.5771744E-1,1E0,2.7598255E0,1.2531716E-1,-9.63719E-2,1.6852257E-1,6.460723E-1,1E0,4E0,1.356144E-1,-3.7441883E-2,2.3745606E0,1.6141123E-1,-1.2022229E-1,-2.2665298E-2,7.337475E-2,-4.776199E-2],"split_indices":[3,1,1,0,0,0,0,1,0,2,1,0,0,0,0,2,3,0,0,1,0,0,0,0,0],"split_type":[0,0,0,0,0,0,0,0,0,0,0,0,0,0,0,0,0,0,0,0,0,0,0,0,0],"sum_hessian":[2.055658E1,8.54722E0,1.2009359E1,1.8772725E0,6.669948E0,1.0797396E1,1.2119633E0,3.0112948E0,3.6586533E0,3.8953118E0,6.9020844E0,1.0707419E0,1.940553E0,1.8532016E0,2.0421102E0,3.7508414E0,3.1512427E0,1.0061723E0,1.0359379E0,2.300867E0,1.4499743E0,1.4023764E0,1.7488664E0,1.0392704E0,1.2615968E0],"tree_param":{"num_deleted":"0","num_feature":"5","num_nodes":"25","size_leaf_vector":"1"}},{"base_weights":[6.0481466E-3,3.0979955E-1,-7.321582E-2,2.2806495E-2,1.4075923E-1,1.7027095E-1,-1.9138792E-1,4.060031E-1,-1.15009055E-1,-3.5298222E-1,1.656529E-1,1.4665975E-1,4.5545354E-2,8.804403E-3,-5.5597235E-2,-2.0438711E-1,-1.6031942E-1,3.255246E-1,-5.559063E-2,2.7793098E-2,-3.3374462E-1,1.2028084E-1,2.8507804E-2,-1.2601997E-1,-2.2706151E-2],"categories":[],"categories_nodes":[],"categories_segments":[],"categories_sizes":[],"default_left":[0,0,0,0,0,0,0,0,0,0,0,0,0,0,0,0,0,0,0,0,0,0,0,0,0],"id":22,"left_children":[1,3,5,-1,-1,7,9,11,13,15,17,-1,-1,-1,-1,19,-1,21,-1,-1,23,-1,-1,-1,-1],"loss_changes":[5.183183E-1,1.302042E-1,5.2560496E-1,0E0,0E0,4.5879316E-1,7.5120306E-1,1.1023283E-3,4.149163E-2,1.22207165E-1,3.0840486E-1,0E0,0E0,0E0,0E0,2.744745E-1,0E0,2.1009266E-2,0E0,0E0,7.1410775E-2,0E0,0E0,0E0,0E0],"parents":[2147483647,0,0,1,1,2,2,5,5,6,6,7,7,8,8,9,9,10,10,15,15,17,17,20,20],"right_children":[2,4,6,-1,-1,8,10,12,14,16,18,-1,-1,-1,-1,20,-1,22,-1,-1,24,-1,-1,-1,-1],"split_conditions":[6.1098605E-1,2E0,2.2845988E0,2.2806495E-2,1.4075923E-1,8.847465E-1,4E0,1.8784661E0,1.5583043E0,3.0768297E0,3.6585875E0,1.4665975E-1,4.5545354E-2,8.804403E-3,-5.5597235E-2,6.838579E-1,-1.6031942E-1,8.6628604E-1,-5.559063E-2,2.7793098E-2,3E0,1.2028084E-1,2.8507804E-2,-1.2601997E-1,-2.2706151E-2],"split_indices":[0,3,1,0,0,0,3,1,1,1,1,0,0,0,0,0,0,0,0,0,3,0,0,0,0],"split_type":[0,0,0,0,0,0,0,0,0,0,0,0,0,0,0,0,0,0,0,0,0,0,0,0,0],"sum_hessian":[1.958585E1,3.4513404E0,1.6134508E1,1.997976E0,1.4533646E0,5.1278987E0,1.100661E1,2.5760703E0,2.5518284E0,7.585039E0,3.4215713E0,1.2464647E0,1.3296055E0,1.0266771E0,1.5251511E0,5.3387594E0,2.2462797E0,2.4005165E0,1.0210547E0,1.705775E0,3.6329844E0,1.2516034E0,1.148913E0,2.251905E0,1.3810794E0],"tree_param":{"num_deleted":"0","num_feature":"5","num_nodes":"25","size_leaf_vector":"1"}},{"base_weights":[1.0460257E-2,-2.9516292E-1,9.960385E-2,-9.163632E-2,-1.4083317E-1,2.3181668E-1,-1.6572309E-1,4.0310305E-2,-9.5239E-2,1.2448451E-1,-2.9169759E-2,-1.1653727E-1,6.440569E-4,6.279667E-2,-1.9544871E-1,2.2096834E-1,-9.509965E-2,-1.2983657E-1,5.469854E-2,8.898775E-2,9.269651E-3],"categories":[],"categories_nodes":[],"categories_segments":[],"categories_sizes":[],"default_left":[0,0,0,0,0,0,0,0,0,0,0,0,0,0,0,0,0,0,0,0,0],"id":23,"left_children":[1,3,5,7,-1,9,11,-1,-1,-1,13,-1,15,-1,17,19,-1,-1,-1,-1,-1],"loss_changes":[5.714586E-1,1.252959E-1,6.0499084E-1,2.1779099E-1,0E0,5.472373E-1,2.2090252E-1,0E0,0E0,0E0,2.6105E-1,0E0,3.7846532E-1,0E0,4.185387E-1,3.67267E-2,0E0,0E0,0E0,0E0,0E0],"parents":[2147483647,0,0,1,1,2,2,3,3,5,5,6,6,10,10,12,12,14,14,15,15],"right_children":[2,4,6,8,-1,10,12,-1,-1,-1,14,-1,16,-1,18,20,-1,-1,-1,-1,-1],"split_conditions":[1E0,2.4506369E0,3.2658112E0,8.479871E-1,-1.4083317E-1,8.560896E-1,3E0,4.0310305E-2,-9.5239E-2,1.2448451E-1,2.19077E0,-1.1653727E-1,7.044765E-1,6.279667E-2,4E0,3.8220377E0,-9.509965E-2,-1.2983657E-1,5.469854E-2,8.898775E-2,9.269651E-3],"split_indices":[3,1,1,0,0,0,3,0,0,0,1,0,0,0,3,1,0,0,0,0,0],"split_type":[0,0,0,0,0,0,0,0,0,0,0,0,0,0,0,0,0,0,0,0,0],"sum_hessian":[1.889621E1,3.74514E0,1.5151071E1,2.43146E0,1.3136799E0,1.0196458E1,4.9546127E0,1.417673E0,1.0137869E0,5.6452894E0,4.551168E0,1.547653E0,3.4069598E0,1.7632693E0,2.7878988E0,2.191344E0,1.2156159E0,1.6227694E0,1.1651294E0,1.1664277E0,1.0249162E0],"tree_param":{"num_deleted":"0","num_feature":"5","num_nodes":"21","size_leaf_vector":"1"}},{"base_weights":[-2.876529E-3,-1.7663737E-1,1.2462958E-1,5.24824E-2,-2.868619E-1,1.944918E-1,-8.577524E-2,2.0098059E-2,-4.1779074E-1,2.9515782E-1,-9.632501E-2,-4.791269E-2,-1.5302132E-1,1.381636E-1,1.0010585E-1,2.9092731E-2,-8.010634E-2,2.6693478E-1,-5.993075E-2,8.750513E-3,1.1213117E-1],"categories":[],"categories_nodes":[],"categories_segments":[],"categories_sizes":[],"default_left":[0,0,0,0,0,0,0,0,0,0,0,0,0,0,0,0,0,0,0,0,0],"id":24,"left_children":[1,3,5,-1,7,9,-1,-1,11,13,15,-1,-1,-1,17,-1,-1,19,-1,-1,-1],"loss_changes":[4.4645652E-1,3.8042253E-1,3.8933915E-1,0E0,3.461157E-1,3.3695602E-1,0E0,0E0,4.1194618E-2,2.1438438E-1,1.4018765E-1,0E0,0E0,0E0,3.026075E-1,0E0,0E0,8.12999E-2,0E0,0E0,0E0],"parents":[2147483647,0,0,1,1,2,2,4,4,5,5,8,8,9,9,10,10,14,14,17,17],"right_children":[2,4,6,-1,8,10,-1,-1,12,14,16,-1,-1,-1,18,-1,-1,20,-1,-1,-1],"split_conditions":[2E0,1.7951393E0,3.8498836E0,5.24824E-2,5.9091246E-1,9.0183604E-1,-8.577524E-2,2.0098059E-2,1E0,3.068395E0,2.4635623E0,-4.791269E-2,-1.5302132E-1,1.381636E-1,7.044765E-1,2.9092731E-2,-8.010634E-2,3E0,-5.993075E-2,8.750513E-3,1.1213117E-1],"split_indices":[3,1,1,0,0,0,0,0,2,1,1,0,0,0,0,0,0,3,0,0,0],"split_type":[0,0,0,0,0,0,0,0,0,0,0,0,0,0,0,0,0,0,0,0,0],"sum_hessian":[1.8157364E1,7.5217137E0,1.0635651E1,1.655165E0,5.8665485E0,9.538722E0,1.0969294E0,1.7163011E0,4.1502476E0,7.0748434E0,2.4638782E0,1.81234E0,2.3379073E0,3.0919724E0,3.982871E0,1.3579643E0,1.1059139E0,2.6297266E0,1.3531445E0,1.2099549E0,1.4197718E0],"tree_param":{"num_deleted":"0","num_feature":"5","num_nodes":"21","size_leaf_vector":"1"}},{"base_weights":[-5.3507565E-3,2.8270578E-1,-8.153249E-2,2.0429956E-2,1.28386E-1,-1.6978478E-1,1.8561183E-1,5.953285E-2,-3.701126E-1,1.0355795E-1,-3.2835122E-2,2.3675855E-1,-9.4940595E-2,-1.5779863E-1,-4.470613E-1,-2.1957138E-3,1.092336E-1,-7.585464E-2,1.1358445E-3,-1.5874447E-1,-4.973756E-2],"categories":[],"categories_nodes":[],"categories_segments":[],"categories_sizes":[],"default_left":[0,0,0,0,0,0,0,0,0,0,0,0,0,0,0,0,0,0,0,0,0],"id":25,"left_children":[1,3,5,-1,-1,7,9,11,13,-1,-1,15,-1,17,19,-1,-1,-1,-1,-1,-1],"loss_changes":[4.3097553E-1,9.9024355E-2,3.964033E-1,0E0,0E0,5.8046806E-1,2.4124253E-1,5.1002467E-1,3.7716746E-2,0E0,0E0,1.5838805E-1,0E0,5.176892E-2,1.19764805E-2,0E0,0E0,0E0,0E0,0E0,0E0],"parents":[2147483647,0,0,1,1,2,2,5,5,6,6,7,7,8,8,11,11,13,13,14,14],"right_children":[2,4,6,-1,-1,8,10,12,14,-1,-1,16,-1,18,20,-1,-1,-1,-1,-1,-1],"split_conditions":[6.1098605E-1,2E0,4E0,2.0429956E-2,1.28386E-1,2.4876273E0,3.5258007E0,9.3868655E-1,6.8154114E-1,1.0355795E-1,-3.2835122E-2,1E0,-9.4940595E-2,2E0,3E0,-2.1957138E-3,1.092336E-1,-7.585464E-2,1.1358445E-3,-1.5874447E-1,-4.973756E-2],"split_indices":[0,3,3,0,0,1,1,0,0,0,0,3,0,3,3,0,0,0,0,0,0],"split_type":[0,0,0,0,0,0,0,0,0,0,0,0,0,0,0,0,0,0,0,0,0],"sum_hessian":[1.7588854E1,3.111769E0,1.4477084E1,1.8488753E0,1.2628937E0,1.1156073E1,3.3210118E0,5.529365E0,5.6267076E0,2.045062E0,1.2759498E0,4.0097313E0,1.5196337E0,2.3083355E0,3.3183722E0,1.6979934E0,2.3117378E0,1.0977769E0,1.2105585E0,1.8865167E0,1.4318554E0],"tree_param":{"num_deleted":"0","num_feature":"5","num_nodes":"21","size_leaf_vector":"1"}},{"base_weights":[-6.7162365E-3,2.4639851E-1,-7.1605265E-2,1.14367075E-1,2.517906E-3,3.7356358E-2,-2.6862893E-1,-2.4899721E-1,1.5646793E-1,-3.9452562E-1,-3.7080217E-2,-8.766821E-3,-1.1010317E-1,3.2843444E-1,2.0491831E-2,-3.520633E-2,-1.4569105E-1,2.7283574E-2,-4.4862647E-2,2.9490259E-2,1.2972575E-1,-1.1930844E-1,9.379669E-2,5.6769636E-2,-9.287171E-2],"categories":[],"categories_nodes":[],"categories_segments":[],"categories_sizes":[],"default_left":[0,0,0,0,0,0,0,0,0,0,0,0,0,0,0,0,0,0,0,0,0,0,0,0,0],"id":26,"left_children":[1,3,5,-1,-1,7,9,11,13,15,17,-1,-1,19,21,-1,-1,-1,-1,-1,-1,23,-1,-1,-1],"loss_changes":[3.1486362E-1,1.2251714E-1,3.358884E-1,0E0,0E0,4.0225726E-1,1.4649498E-1,8.043851E-2,1.835276E-1,3.08069E-2,5.7520907E-2,0E0,0E0,4.1876644E-2,2.664507E-1,0E0,0E0,0E0,0E0,0E0,0E0,3.238272E-1,0E0,0E0,0E0],"parents":[2147483647,0,0,1,1,2,2,5,5,6,6,7,7,8,8,9,9,10,10,13,13,14,14,21,21],"right_children":[2,4,6,-1,-1,8,10,12,14,16,18,-1,-1,20,22,-1,-1,-1,-1,-1,-1,24,-1,-1,-1],"split_conditions":[5.93285E-1,3.2833645E0,3.0433536E0,1.14367075E-1,2.517906E-3,1E0,4E0,1.8784661E0,8.1003636E-1,3.3293424E0,7.169258E-1,-8.766821E-3,-1.1010317E-1,2E0,4E0,-3.520633E-2,-1.4569105E-1,2.7283574E-2,-4.4862647E-2,2.9490259E-2,1.2972575E-1,2.1032782E0,9.379669E-2,5.6769636E-2,-9.287171E-2],"split_indices":[0,1,1,0,0,3,3,1,0,1,0,0,0,3,3,0,0,0,0,0,0,1,0,0,0],"split_type":[0,0,0,0,0,0,0,0,0,0,0,0,0,0,0,0,0,0,0,0,0,0,0,0,0],"sum_hessian":[1.709629E1,2.9177399E0,1.4178552E1,1.4784733E0,1.4392666E0,9.651371E0,4.527181E0,2.5149002E0,7.136471E0,2.4767027E0,2.0504782E0,1.314517E0,1.2003832E0,2.5262213E0,4.6102495E0,1.178772E0,1.2979306E0,1.0483605E0,1.0021179E0,1.3916451E0,1.1345762E0,3.5183558E0,1.0918936E0,1.3441099E0,2.1742458E0],"tree_param":{"num_deleted":"0","num_feature":"5","num_nodes":"25","size_leaf_vector":"1"}},{"base_weights":[-3.925755E-3,1.3041255E-1,-1.2879507E-1,3.7156203E-1,-4.905503E-4,-9.550276E-3,-1.255716E-1,1.4175299E-1,2.407789E-2,-1.6737528E-1,9.840633E-2,-2.8693148E-1,1.4213586E-1,4.182926E-2,-2.914826E-1,-2.577771E-2,-1.0577722E-1,2.6710305E-1,-6.509837E-2,-1.4334715E-2,-1.19395904E-1,3.1746638E-1,1.2772988E-2,1.2480044E-1,2.9363168E-2],"categories":[],"categories_nodes":[],"categories_segments":[],"categories_sizes":[],"default_left":[0,0,0,0,0,0,0,0,0,0,0,0,0,0,0,0,0,0,0,0,0,0,0,0,0],"id":27,"left_children":[1,3,5,7,9,11,-1,-1,-1,13,-1,15,17,-1,19,-1,-1,21,-1,-1,-1,23,-1,-1,-1],"loss_changes":[3.1205684E-1,2.8353375E-1,3.2860103E-1,5.4985464E-2,4.2861566E-1,3.707583E-1,0E0,0E0,0E0,2.3797338E-1,0E0,1.0667175E-2,3.1551242E-1,0E0,8.515173E-2,0E0,0E0,3.9693475E-2,0E0,0E0,0E0,3.9093226E-2,0E0,0E0,0E0],"parents":[2147483647,0,0,1,1,2,2,3,3,4,4,5,5,9,9,11,11,12,12,14,14,17,17,21,21],"right_children":[2,4,6,8,10,12,-1,-1,-1,14,-1,16,18,-1,20,-1,-1,22,-1,-1,-1,24,-1,-1,-1],"split_conditions":[2.7598255E0,7.747644E-1,7.6567733E-1,2.4682748E0,3E0,2E0,-1.255716E-1,1.4175299E-1,2.407789E-2,1.5553988E0,9.840633E-2,1E0,3.832178E0,4.182926E-2,8.360678E-1,-2.577771E-2,-1.0577722E-1,7.004257E-1,-6.509837E-2,-1.4334715E-2,-1.19395904E-1,1E0,1.2772988E-2,1.2480044E-1,2.9363168E-2],"split_indices":[1,0,0,1,3,3,0,0,0,1,0,4,1,0,0,0,0,0,0,0,0,2,0,0,0],"split_type":[0,0,0,0,0,0,0,0,0,0,0,0,0,0,0,0,0,0,0,0,0,0,0,0,0],"sum_hessian":[1.6601494E1,7.9761314E0,8.625363E0,2.1594834E0,5.816648E0,6.8425665E0,1.7827967E0,1.1417588E0,1.0177248E0,4.1824546E0,1.6341933E0,2.1038122E0,4.7387543E0,1.1690276E0,3.0134273E0,1.0864553E0,1.0173568E0,3.7055712E0,1.033183E0,1.3570018E0,1.6564255E0,2.6885638E0,1.0170074E0,1.2384065E0,1.4501572E0],"tree_param":{"num_deleted":"0","num_feature":"5","num_nodes":"25","size_leaf_vector":"1"}},{"base_weights":[-1.6721704E-3,-2.336974E-1,6.854555E-2,-4.7852304E-3,-9.8371476E-2,1.5972668E-1,-2.0093217E-1,3.3552092E-1,-9.693908E-3,2.1533154E-2,-9.656164E-2,1.371998E-1,9.314402E-2,2.680237E-1,-2.1558444E-1,-2.653928E-2,6.807377E-2,2.0798486E-2,1.03177756E-1,-9.9641E-2,1.3841576E-2],"categories":[],"categories_nodes":[],"categories_segments":[],"categories_sizes":[],"default_left":[0,0,0,0,0,0,0,0,0,0,0,0,0,0,0,0,0,0,0,0,0],"id":28,"left_children":[1,3,5,-1,-1,7,9,11,13,-1,-1,-1,15,17,19,-1,-1,-1,-1,-1,-1],"loss_changes":[2.939084E-1,8.0708236E-2,3.7282708E-1,0E0,0E0,3.2843643E-1,1.5333806E-1,1.16434515E-1,4.312722E-1,0E0,0E0,0E0,9.4348446E-2,2.4818838E-2,1.4665298E-1,0E0,0E0,0E0,0E0,0E0,0E0],"parents":[2147483647,0,0,1,1,2,2,5,5,6,6,7,7,8,8,12,12,13,13,14,14],"right_children":[2,4,6,-1,-1,8,10,12,14,-1,-1,-1,16,18,20,-1,-1,-1,-1,-1,-1],"split_conditions":[1E0,1.8784661E0,3.5330713E0,-4.7852304E-3,-9.8371476E-2,7.713223E-1,5.645797E-1,1E0,2.2845988E0,2.1533154E-2,-9.656164E-2,1.371998E-1,2E0,2E0,4E0,-2.653928E-2,6.807377E-2,2.0798486E-2,1.03177756E-1,-9.9641E-2,1.3841576E-2],"split_indices":[3,1,1,0,0,0,0,4,1,0,0,0,3,3,3,0,0,0,0,0,0],"split_type":[0,0,0,0,0,0,0,0,0,0,0,0,0,0,0,0,0,0,0,0,0],"sum_hessian":[1.6056509E1,3.1893938E0,1.2867116E1,1.3162932E0,1.8731005E0,9.918382E0,2.948734E0,4.3864794E0,5.5319023E0,1.0308223E0,1.9179118E0,2.3290825E0,2.0573967E0,2.2266645E0,3.3052378E0,1.0163057E0,1.041091E0,1.144362E0,1.0823026E0,2.1007009E0,1.2045368E0],"tree_param":{"num_deleted":"0","num_feature":"5","num_nodes":"21","size_leaf_vector":"1"}},{"base_weights":[1.347784E-3,6.2328827E-2,-2.697395E-1,2.0663786E-1,-1.3355452E-1,-1.661112E-2,-1.0490382E-1,4.4982646E-2,1.14159904E-1,-3.2841492E-1,6.502147E-2,8.4200956E-2,-1.1199579E-1,-1.4886127E-2,-1.2670334E-1,2.1418886E-1,-5.4512586E-2,7.323369E-2,-9.684465E-2,8.659335E-2,1.1176952E-2],"categories":[],"categories_nodes":[],"categories_segments":[],"categories_sizes":[],"default_left":[0,0,0,0,0,0,0,0,0,0,0,0,0,0,0,0,0,0,0,0,0],"id":29,"left_children":[1,3,5,7,9,-1,-1,11,-1,13,15,-1,17,-1,-1,19,-1,-1,-1,-1,-1],"loss_changes":[2.9220825E-1,4.34997E-1,3.6280558E-2,2.2719967E-1,2.8142175E-1,0E0,0E0,2.4003266E-1,0E0,7.2203934E-2,1.9215432E-1,0E0,3.8652843E-1,0E0,0E0,2.9475078E-2,0E0,0E0,0E0,0E0,0E0],"parents":[2147483647,0,0,1,1,2,2,3,3,4,4,7,7,9,9,10,10,12,12,15,15],"right_children":[2,4,6,8,10,-1,-1,12,-1,14,16,-1,18,-1,-1,20,-1,-1,-1,-1,-1],"split_conditions":[9.3868655E-1,3.068395E0,2.1032782E0,2E0,3E0,-1.661112E-2,-1.0490382E-1,6.600248E-1,1.14159904E-1,5.4891706E-1,7.098E-1,8.4200956E-2,1.8244181E0,-1.4886127E-2,-1.2670334E-1,6.8154114E-1,-5.4512586E-2,7.323369E-2,-9.684465E-2,8.659335E-2,1.1176952E-2],"split_indices":[0,1,1,3,3,0,0,0,0,0,0,0,1,0,0,0,0,0,0,0,0],"split_type":[0,0,0,0,0,0,0,0,0,0,0,0,0,0,0,0,0,0,0,0,0],"sum_hessian":[1.56591625E1,1.3412174E1,2.246988E0,7.6911397E0,5.721035E0,1.0700802E0,1.1769079E0,4.63814E0,3.0529993E0,2.5575194E0,3.1635153E0,1.5392143E0,3.0989258E0,1.0296531E0,1.5278664E0,2.0537531E0,1.1097623E0,1.0936527E0,2.0052733E0,1.0010948E0,1.0526582E0],"tree_param":{"num_deleted":"0","num_feature":"5","num_nodes":"21","size_leaf_vector":"1"}},{"base_weights":[-1.7565906E-3,7.0048004E-2,-2.0365006E-1,3.2494083E-1,-4.3763705E-2,1.2785415E-3,-9.081126E-2,1.2006993E-1,3.789629E-2,-2.1110402E-1,1.703331E-1,-5.5475906E-2,-1.2863624E-1,1.0463945E-1,-1.6620804E-2,1.12258755E-1,-8.7516904E-2,8.820225E-2,-3.215116E-2],"categories":[],"categories_nodes":[],"categories_segments":[],"categories_sizes":[],"default_left":[0,0,0,0,0,0,0,0,0,0,0,0,0,0,0,0,0,0,0],"id":30,"left_children":[1,3,5,7,9,-1,-1,-1,-1,11,13,15,-1,-1,-1,17,-1,-1,-1],"loss_changes":[2.4883477E-1,3.8205773E-1,9.398459E-2,9.749144E-3,3.8158405E-1,0E0,0E0,0E0,0E0,1.7478195E-1,2.1212132E-1,2.1370246E-1,0E0,0E0,0E0,1.6680776E-1,0E0,0E0,0E0],"parents":[2147483647,0,0,1,1,2,2,3,3,4,4,9,9,10,10,11,11,15,15],"right_children":[2,4,6,8,10,-1,-1,-1,-1,12,14,16,-1,-1,-1,18,-1,-1,-1],"split_conditions":[8.918265E-1,2.4876273E0,1E0,7.9544646E-1,3E0,1.2785415E-3,-9.081126E-2,1.2006993E-1,3.789629E-2,6.8154114E-1,3.5330713E0,3.2658112E0,-1.2863624E-1,1.0463945E-1,-1.6620804E-2,1E0,-8.7516904E-2,8.820225E-2,-3.215116E-2],"split_indices":[0,1,4,0,3,0,0,0,0,0,1,1,0,0,0,2,0,0,0],"split_type":[0,0,0,0,0,0,0,0,0,0,0,0,0,0,0,0,0,0,0],"sum_hessian":[1.5180691E1,1.1679761E1,3.5009305E0,3.032684E0,8.647077E0,1.4385109E0,2.0624197E0,1.4630169E0,1.5696673E0,4.861363E0,3.7857134E0,3.5664513E0,1.2949115E0,1.8097653E0,1.9759482E0,2.3925638E0,1.1738876E0,1.1227442E0,1.2698196E0],"tree_param":{"num_deleted":"0","num_feature":"5","num_nodes":"19","size_leaf_vector":"1"}},{"base_weights":[-1.3091451E-3,-2.2625849E-1,6.782223E-2,-2.0438235E-2,-9.346597E-2,2.3259489E-1,-5.490808E-2,1.0421214E-1,9.6600644E-2,7.7180445E-2,-1.9780128E-1,-3.183197E-2,8.893408E-2,9.329775E-2,-3.9226037E-1,1.027522E-1,-6.6372976E-2,-1.6732058E-1,-3.372301E-2],"categories":[],"categories_nodes":[],"categories_segments":[],"categories_sizes":[],"default_left":[0,0,0,0,0,0,0,0,0,0,0,0,0,0,0,0,0,0,0],"id":31,"left_children":[1,3,5,-1,-1,7,9,-1,11,-1,13,-1,-1,15,17,-1,-1,-1,-1],"loss_changes":[2.61238E-1,3.2019407E-2,2.7292123E-1,0E0,0E0,5.5143923E-2,4.158591E-1,0E0,1.9293359E-1,0E0,3.8631445E-1,0E0,0E0,3.3304685E-1,1.1771935E-1,0E0,0E0,0E0,0E0],"parents":[2147483647,0,0,1,1,2,2,5,5,6,6,8,8,10,10,13,13,14,14],"right_children":[2,4,6,-1,-1,8,10,-1,12,-1,14,-1,-1,16,18,-1,-1,-1,-1],"split_conditions":[1E0,7.9544646E-1,2.7598255E0,-2.0438235E-2,-9.346597E-2,2.1276648E0,6.2120485E-1,1.0421214E-1,1E0,7.7180445E-2,1E0,-3.183197E-2,8.893408E-2,6.9336766E-1,6.9156927E-1,1.027522E-1,-6.6372976E-2,-1.6732058E-1,-3.372301E-2],"split_indices":[3,0,1,0,0,1,0,0,2,0,2,0,0,0,0,0,0,0,0],"split_type":[0,0,0,0,0,0,0,0,0,0,0,0,0,0,0,0,0,0,0],"sum_hessian":[1.4811955E1,2.947639E0,1.1864316E1,1.6630951E0,1.2845439E0,4.6825485E0,7.1817675E0,1.6964341E0,2.9861145E0,2.0037622E0,5.178005E0,1.715309E0,1.2708055E0,2.2820575E0,2.8959477E0,1.2236516E0,1.0584059E0,1.195861E0,1.7000868E0],"tree_param":{"num_deleted":"0","num_feature":"5","num_nodes":"19","size_leaf_vector":"1"}},{"base_weights":[-3.6083001E-3,-1.4445864E-1,1.0357822E-1,3.7521094E-3,-1.14207774E-1,2.7154586E-1,-8.24078E-3,1.1144798E-1,-1.9650683E-1,2.7677443E-2,9.6609935E-2,2.5353503E-1,-1.8333413E-1,2.7527384E-2,-1.0771469E-1,9.5063E-2,1.8736385E-2,-3.6450304E-2,-9.952553E-2,-5.5240277E-2,3.4248542E-2],"categories":[],"categories_nodes":[],"categories_segments":[],"categories_sizes":[],"default_left":[0,0,0,0,0,0,0,0,0,0,0,0,0,0,0,0,0,0,0,0,0],"id":32,"left_children":[1,3,5,7,-1,9,11,-1,13,-1,-1,15,17,-1,-1,-1,-1,19,-1,-1,-1],"loss_changes":[2.479417E-1,2.495373E-1,1.7776579E-1,4.6659908E-1,0E0,4.3649375E-3,3.4812665E-1,0E0,2.2572316E-1,0E0,0E0,1.7213076E-2,8.652672E-2,0E0,0E0,0E0,0E0,9.65822E-2,0E0,0E0,0E0],"parents":[2147483647,0,0,1,1,2,2,3,3,5,5,6,6,8,8,11,11,12,12,17,17],"right_children":[2,4,6,8,-1,10,12,-1,14,-1,-1,16,18,-1,-1,-1,-1,20,-1,-1,-1],"split_conditions":[2E0,2.777051E0,2.7598255E0,7.126067E-1,-1.14207774E-1,3E0,6.8154114E-1,1.1144798E-1,1.7951393E0,2.7677443E-2,9.6609935E-2,3.5900009E0,7.9842144E-1,2.7527384E-2,-1.0771469E-1,9.5063E-2,1.8736385E-2,4E0,-9.952553E-2,-5.5240277E-2,3.4248542E-2],"split_indices":[3,1,1,0,0,3,0,0,1,0,0,1,0,0,0,0,0,3,0,0,0],"split_type":[0,0,0,0,0,0,0,0,0,0,0,0,0,0,0,0,0,0,0,0,0],"sum_hessian":[1.4431873E1,6.0863137E0,8.345559E0,4.344645E0,1.7416686E0,2.764482E0,5.581077E0,1.2303163E0,3.1143289E0,1.2286649E0,1.5358171E0,2.057293E0,3.5237844E0,1.2799134E0,1.8344154E0,1.0506643E0,1.0066286E0,2.3970747E0,1.1267096E0,1.0979238E0,1.2991511E0],"tree_param":{"num_deleted":"0","num_feature":"5","num_nodes":"21","size_leaf_vector":"1"}},{"base_weights":[-4.4891078E-4,-6.748528E-2,2.100274E-1,3.16348E-2,-2.5012973E-1,8.940311E-2,2.8408454E-3,2.5426927E-1,-1.4966276E-1,8.833433E-3,-3.4291318E-1,1.165805E-1,8.317941E-2,4.553678E-2,-2.8689593E-1,-2.0361742E-2,-1.3193552E-1,8.93157E-2,-5.1268607E-2,2.8599944E-2,-7.0910645E-3,-5.7280604E-3,-1.1925376E-1],"categories":[],"categories_nodes":[],"categories_segments":[],"categories_sizes":[],"default_left":[0,0,0,0,0,0,0,0,0,0,0,0,0,0,0,0,0,0,0,0,0,0,0],"id":33,"left_children":[1,3,5,7,9,-1,-1,11,13,-1,15,-1,17,19,21,-1,-1,-1,-1,-1,-1,-1,-1],"loss_changes":[2.2582817E-1,2.2758321E-1,6.541011E-2,3.9135987E-1,1.2373465E-1,0E0,0E0,6.648496E-2,1.5916416E-1,0E0,5.9894294E-2,0E0,2.2330454E-1,1.2981558E-2,9.133628E-2,0E0,0E0,0E0,0E0,0E0,0E0,0E0,0E0],"parents":[2147483647,0,0,1,1,2,2,3,3,4,4,7,7,8,8,10,10,12,12,13,13,14,14],"right_children":[2,4,6,8,10,-1,-1,12,14,-1,16,-1,18,20,22,-1,-1,-1,-1,-1,-1,-1,-1],"split_conditions":[4E0,8.531211E-1,3.5900009E0,2.777051E0,1.6255316E0,8.940311E-2,2.8408454E-3,2.0027149E0,6.2120485E-1,8.833433E-3,1E0,1.165805E-1,7.126067E-1,3.3690956E0,1E0,-2.0361742E-2,-1.3193552E-1,8.93157E-2,-5.1268607E-2,2.8599944E-2,-7.0910645E-3,-5.7280604E-3,-1.1925376E-1],"split_indices":[3,0,1,1,1,0,0,1,0,0,4,0,0,1,4,0,0,0,0,0,0,0,0],"split_type":[0,0,0,0,0,0,0,0,0,0,0,0,0,0,0,0,0,0,0,0,0,0,0],"sum_hessian":[1.4000773E1,1.11339855E1,2.866788E0,7.753177E0,3.3808084E0,1.654894E0,1.211894E0,3.2992196E0,4.4539576E0,1.012525E0,2.3682835E0,1.1359721E0,2.1632476E0,2.1144946E0,2.3394632E0,1.059831E0,1.3084525E0,1.0797416E0,1.083506E0,1.0095638E0,1.1049306E0,1.0266228E0,1.3128405E0],"tree_param":{"num_deleted":"0","num_feature":"5","num_nodes":"23","size_leaf_vector":"1"}},{"base_weights":[-3.2232318E-4,-2.2478323E-1,6.968042E-2,-1.2106742E-2,-8.760606E-2,1.6730241E-1,-1.1297364E-1,9.133399E-2,-2.1504939E-2,-2.3686203E-1,2.2296593E-2,1.20794415E-1,-7.011809E-2,-2.798327E-3,-1.0331226E-1,5.0393336E-2,2.2273895E-3],"categories":[],"categories_nodes":[],"categories_segments":[],"categories_sizes":[],"default_left":[0,0,0,0,0,0,0,0,0,0,0,0,0,0,0,0,0],"id":34,"left_children":[1,3,5,-1,-1,7,9,-1,11,13,-1,15,-1,-1,-1,-1,-1],"loss_changes":[2.460315E-1,3.4369603E-2,2.3178759E-1,0E0,0E0,2.1845496E-1,1.2794693E-1,0E0,1.6042402E-1,7.2646916E-2,0E0,1.6296018E-2,0E0,0E0,0E0,0E0,0E0],"parents":[2147483647,0,0,1,1,2,2,5,5,6,6,8,8,9,9,11,11],"right_children":[2,4,6,-1,-1,8,10,-1,12,14,-1,16,-1,-1,-1,-1,-1],"split_conditions":[1E0,1.8784661E0,3.2658112E0,-1.2106742E-2,-8.760606E-2,8.579861E-1,4E0,9.133399E-2,2.6008077E0,5.684093E-1,2.2296593E-2,2.19077E0,-7.011809E-2,-2.798327E-3,-1.0331226E-1,5.0393336E-2,2.2273895E-3],"split_indices":[3,1,1,0,0,0,3,0,1,0,0,1,0,0,0,0,0],"split_type":[0,0,0,0,0,0,0,0,0,0,0,0,0,0,0,0,0],"sum_hessian":[1.3661125E1,2.7220197E0,1.0939106E1,1.1547642E0,1.5672554E0,7.183717E0,3.7553892E0,3.8063912E0,3.3773255E0,2.1010125E0,1.6543767E0,2.2796102E0,1.0977156E0,1.0229157E0,1.0780966E0,1.2695541E0,1.0100559E0],"tree_param":{"num_deleted":"0","num_feature":"5","num_nodes":"17","size_leaf_vector":"1"}},{"base_weights":[-7.859488E-3,-1.04704075E-1,1.4023972E-1,5.2810673E-2,-2.2852188E-1,2.2506921E-1,-1.1676334E-2,2.9035288E-1,-7.1947396E-2,5.947884E-3,-1.05135724E-1,1.1043565E-1,-1.1360656E-2,1.0440507E-1,2.7571907E-2],"categories":[],"categories_nodes":[],"categories_segments":[],"categories_sizes":[],"default_left":[0,0,0,0,0,0,0,0,0,0,0,0,0,0,0],"id":35,"left_children":[1,3,5,7,9,11,-1,13,-1,-1,-1,-1,-1,-1,-1],"loss_changes":[2.215948E-1,1.9335118E-1,1.0194367E-1,4.104676E-1,1.7022172E-1,1.7599683E-1,0E0,4.160464E-3,0E0,0E0,0E0,0E0,0E0,0E0,0E0],"parents":[2147483647,0,0,1,1,2,2,3,3,4,4,5,5,7,7],"right_children":[2,4,6,8,10,12,-1,14,-1,-1,-1,-1,-1,-1,-1],"split_conditions":[3E0,2.4635623E0,3.5330713E0,8.808098E-1,5.9091246E-1,9.064505E-1,-1.1676334E-2,1.9573014E0,-7.1947396E-2,5.947884E-3,-1.05135724E-1,1.1043565E-1,-1.1360656E-2,1.0440507E-1,2.7571907E-2],"split_indices":[3,1,1,0,0,0,0,1,0,0,0,0,0,0,0],"split_type":[0,0,0,0,0,0,0,0,0,0,0,0,0,0,0],"sum_hessian":[1.3426325E1,8.295059E0,5.131266E0,3.9031498E0,4.391909E0,3.3085058E0,1.8227603E0,2.1586766E0,1.7444731E0,1.7219787E0,2.6699305E0,1.8836813E0,1.4248246E0,1.0886377E0,1.070039E0],"tree_param":{"num_deleted":"0","num_feature":"5","num_nodes":"15","size_leaf_vector":"1"}},{"base_weights":[-2.0444917E-3,-1.3770363E-1,9.658235E-2,3.0296084E-2,-2.1552286E-1,9.937605E-2,1.6658159E-2,-4.165918E-2,-1.0985437E-1,1.8557468E-1,-2.087527E-1,8.149409E-2,-8.7430656E-2,2.6457185E-1,-1.1246563E-2,-9.6948236E-2,-1.3366673E-2,1.0182241E-1,3.253629E-2],"categories":[],"categories_nodes":[],"categories_segments":[],"categories_sizes":[],"default_left":[0,0,0,0,0,0,0,0,0,0,0,0,0,0,0,0,0,0,0],"id":36,"left_children":[1,3,5,-1,7,-1,9,11,-1,13,15,-1,-1,17,-1,-1,-1,-1,-1],"loss_changes":[2.0233542E-1,1.3989893E-1,1.5894647E-1,0E0,1.1873551E-1,0E0,3.2788223E-1,3.5331044E-1,0E0,9.574023E-2,5.5550754E-2,0E0,0E0,6.6597164E-3,0E0,0E0,0E0,0E0,0E0],"parents":[2147483647,0,0,1,1,2,2,4,4,6,6,7,7,9,9,10,10,13,13],"right_children":[2,4,6,-1,8,-1,10,12,-1,14,16,-1,-1,18,-1,-1,-1,-1,-1],"split_conditions":[2E0,1.7951393E0,6.3615364E-1,3.0296084E-2,7.2076523E-1,9.937605E-2,3.0768297E0,2.777051E0,-1.0985437E-1,9.4385207E-1,4E0,8.149409E-2,-8.7430656E-2,2.5628738E0,-1.1246563E-2,-9.6948236E-2,-1.3366673E-2,1.0182241E-1,3.253629E-2],"split_indices":[3,1,0,0,0,0,1,1,0,0,3,0,0,1,0,0,0,0,0],"split_type":[0,0,0,0,0,0,0,0,0,0,0,0,0,0,0,0,0,0,0],"sum_hessian":[1.3128615E1,5.359933E0,7.7686825E0,1.2446318E0,4.115301E0,1.1747675E0,6.593915E0,2.503134E0,1.6121672E0,3.870328E0,2.7235873E0,1.071518E0,1.4316161E0,2.7207117E0,1.1496161E0,1.0345879E0,1.6889994E0,1.0454922E0,1.6752197E0],"tree_param":{"num_deleted":"0","num_feature":"5","num_nodes":"19","size_leaf_vector":"1"}},{"base_weights":[3.5523417E-4,-1.9971533E-1,6.209008E-2,-1.52478255E-2,-8.214633E-2,9.724861E-2,-6.967837E-3,1.2227017E-1,-2.0115834E-1,2.8497562E-1,-1.1516787E-1,-8.73701E-2,8.183539E-3,1.1562275E-1,1.5471738E-2,-6.293074E-2,1.0570349E-2],"categories":[],"categories_nodes":[],"categories_segments":[],"categories_sizes":[],"default_left":[0,0,0,0,0,0,0,0,0,0,0,0,0,0,0,0,0],"id":37,"left_children":[1,3,5,-1,-1,-1,7,9,11,13,15,-1,-1,-1,-1,-1,-1],"loss_changes":[1.82781E-1,2.4589479E-2,2.0685014E-1,0E0,0E0,0E0,2.7370444E-1,2.870835E-1,9.733535E-2,7.841897E-2,5.560183E-2,0E0,0E0,0E0,0E0,0E0,0E0],"parents":[2147483647,0,0,1,1,2,2,6,6,7,7,8,8,9,9,10,10],"right_children":[2,4,6,-1,-1,-1,8,10,12,14,16,-1,-1,-1,-1,-1,-1],"split_conditions":[1E0,7.9544646E-1,2.1276648E0,-1.52478255E-2,-8.214633E-2,9.724861E-2,7.713223E-1,3.5330713E0,4E0,1E0,4E0,-8.73701E-2,8.183539E-3,1.1562275E-1,1.5471738E-2,-6.293074E-2,1.0570349E-2],"split_indices":[3,0,1,0,0,0,0,1,3,4,3,0,0,0,0,0,0],"split_type":[0,0,0,0,0,0,0,0,0,0,0,0,0,0,0,0,0],"sum_hessian":[1.2794524E1,2.4899695E0,1.0304554E1,1.3877122E0,1.1022573E0,1.3786342E0,8.9259205E0,5.581602E0,3.344318E0,3.1932223E0,2.3883798E0,2.201387E0,1.1429309E0,1.7772229E0,1.4159994E0,1.2238646E0,1.1645154E0],"tree_param":{"num_deleted":"0","num_feature":"5","num_nodes":"17","size_leaf_vector":"1"}},{"base_weights":[4.4083415E-4,1.9450629E-1,-5.406443E-2,7.2043866E-2,1.501686E-2,7.696787E-2,-1.6714366E-1,9.61961E-2,-3.896E-2,1.5417055E-2,-3.0709356E-1,8.495242E-2,-2.2898386E-1,-7.0990205E-2,6.559815E-2,-1.23839535E-1,-3.0250922E-2,-1.1725355E-1,-3.4131883E-3],"categories":[],"categories_nodes":[],"categories_segments":[],"categories_sizes":[],"default_left":[0,0,0,0,0,0,0,0,0,0,0,0,0,0,0,0,0,0,0],"id":38,"left_children":[1,3,5,-1,-1,7,9,-1,11,13,15,-1,17,-1,-1,-1,-1,-1,-1],"loss_changes":[1.5389524E-1,9.008378E-3,1.8126386E-1,0E0,0E0,1.8056297E-1,1.6865516E-1,0E0,3.6620548E-1,2.4314372E-1,3.859818E-2,0E0,1.2409447E-1,0E0,0E0,0E0,0E0,0E0,0E0],"parents":[2147483647,0,0,1,1,2,2,5,5,6,6,8,8,9,9,10,10,12,12],"right_children":[2,4,6,-1,-1,8,10,-1,12,14,16,-1,18,-1,-1,-1,-1,-1,-1],"split_conditions":[6.1098605E-1,3.4196835E0,1E0,7.2043866E-2,1.501686E-2,1.9807949E0,2.7598255E0,9.61961E-2,6.982714E-1,1E0,6.9156927E-1,8.495242E-2,3E0,-7.0990205E-2,6.559815E-2,-1.23839535E-1,-3.0250922E-2,-1.1725355E-1,-3.4131883E-3],"split_indices":[0,1,2,0,0,1,1,0,0,3,0,0,3,0,0,0,0,0,0],"split_type":[0,0,0,0,0,0,0,0,0,0,0,0,0,0,0,0,0,0,0],"sum_hessian":[1.2555016E1,2.1897728E0,1.0365243E1,1.1605911E0,1.0291816E0,4.9493976E0,5.415845E0,1.0262328E0,3.9231646E0,2.7362814E0,2.6795635E0,1.273715E0,2.6494498E0,1.1481373E0,1.5881442E0,1.1095512E0,1.5700123E0,1.0628017E0,1.5866481E0],"tree_param":{"num_deleted":"0","num_feature":"5","num_nodes":"19","size_leaf_vector":"1"}},{"base_weights":[-7.9089036E-4,-1.349058E-1,9.500432E-2,-1.6845532E-2,-1.0228585E-1,2.140761E-1,-3.3123795E-2,1.0163255E-1,-2.1220559E-1,9.115214E-2,-1.0839325E-2,5.612063E-2,-2.0228569E-1,-1.4973378E-3,-8.9503296E-2,-1.47878835E-2,-7.844208E-2],"categories":[],"categories_nodes":[],"categories_segments":[],"categories_sizes":[],"default_left":[0,0,0,0,0,0,0,0,0,0,0,0,0,0,0,0,0],"id":39,"left_children":[1,3,5,7,-1,9,11,-1,13,-1,-1,-1,15,-1,-1,-1,-1],"loss_changes":[1.8332314E-1,1.3882515E-1,1.3415468E-1,4.0745988E-1,0E0,1.10942066E-1,2.1952705E-1,0E0,6.513107E-2,0E0,0E0,0E0,1.6441002E-2,0E0,0E0,0E0,0E0],"parents":[2147483647,0,0,1,1,2,2,3,3,5,5,6,6,8,8,12,12],"right_children":[2,4,6,8,-1,10,12,-1,14,-1,-1,-1,16,-1,-1,-1,-1],"split_conditions":[2E0,8.808098E-1,3.068395E0,2.0027149E0,-1.0228585E-1,9.4385207E-1,6.8154114E-1,1.0163255E-1,5.8615994E-1,9.115214E-2,-1.0839325E-2,5.612063E-2,7.098E-1,-1.4973378E-3,-8.9503296E-2,-1.47878835E-2,-7.844208E-2],"split_indices":[3,0,1,1,0,0,0,0,0,0,0,0,0,0,0,0,0],"split_type":[0,0,0,0,0,0,0,0,0,0,0,0,0,0,0,0,0],"sum_hessian":[1.2271502E1,4.942977E0,7.3285246E0,3.8301458E0,1.1128312E0,3.4508188E0,3.8777058E0,1.097756E0,2.73239E0,2.3819242E0,1.0688947E0,1.6387463E0,2.2389596E0,1.1129739E0,1.619416E0,1.1358254E0,1.1031342E0],"tree_param":{"num_deleted":"0","num_feature":"5","num_nodes":"17","size_leaf_vector":"1"}},{"base_weights":[-4.272279E-3,-8.898577E-2,1.19244084E-1,6.848847E-2,-2.1029381E-1,2.065958E-1,-1.8068658E-2,8.3614856E-2,-5.828404E-2,-1.6082994E-3,-8.96329E-2,9.0207934E-2,1.3109338E-2,5.115154E-2,-5.998672E-2],"categories":[],"categories_nodes":[],"categories_segments":[],"categories_sizes":[],"default_left":[0,0,0,0,0,0,0,0,0,0,0,0,0,0,0],"id":40,"left_children":[1,3,5,7,9,11,13,-1,-1,-1,-1,-1,-1,-1,-1],"loss_changes":[1.4633335E-1,1.7232095E-1,7.2153196E-2,2.9452974E-1,8.752628E-2,4.1533858E-2,1.4170575E-1,0E0,0E0,0E0,0E0,0E0,0E0,0E0,0E0],"parents":[2147483647,0,0,1,1,2,2,3,3,4,4,5,5,6,6],"right_children":[2,4,6,8,10,12,14,-1,-1,-1,-1,-1,-1,-1,-1],"split_conditions":[3E0,2.4635623E0,7.9842144E-1,8.808098E-1,5.8615994E-1,3.5900009E0,2.6525722E0,8.3614856E-2,-5.828404E-2,-1.6082994E-3,-8.96329E-2,9.0207934E-2,1.3109338E-2,5.115154E-2,-5.998672E-2],"split_indices":[3,1,0,0,0,1,1,0,0,0,0,0,0,0,0],"split_type":[0,0,0,0,0,0,0,0,0,0,0,0,0,0,0],"sum_hessian":[1.1971023E1,7.2667184E0,4.7043037E0,3.351472E0,3.9152465E0,2.5668404E0,2.1374633E0,1.8281623E0,1.5233096E0,1.5005159E0,2.4147305E0,1.0908295E0,1.4760109E0,1.0801651E0,1.0572983E0],"tree_param":{"num_deleted":"0","num_feature":"5","num_nodes":"15","size_leaf_vector":"1"}},{"base_weights":[-7.3280284E-4,-1.8040766E-1,5.3950716E-2,-1.3487075E-2,-7.083727E-2,1.4861892E-1,-1.1344786E-1,3.1074762E-1,8.737372E-3,-8.297709E-2,1.7112562E-2,1.1559738E-1,2.8646234E-2,6.652496E-2,-1.3283375E-1,4.8564337E-2,-3.5042632E-2,-1.0458836E-2,-5.071158E-2],"categories":[],"categories_nodes":[],"categories_segments":[],"categories_sizes":[],"default_left":[0,0,0,0,0,0,0,0,0,0,0,0,0,0,0,0,0,0,0],"id":41,"left_children":[1,3,5,-1,-1,7,9,11,13,-1,15,-1,-1,-1,17,-1,-1,-1,-1],"loss_changes":[1.3488282E-1,1.3551846E-2,1.8381613E-1,0E0,0E0,1.5972033E-1,9.7874135E-2,1.5997797E-2,1.7643677E-1,0E0,8.425891E-2,0E0,0E0,0E0,6.710686E-3,0E0,0E0,0E0,0E0],"parents":[2147483647,0,0,1,1,2,2,5,5,6,6,7,7,8,8,10,10,14,14],"right_children":[2,4,6,-1,-1,8,10,12,14,-1,16,-1,-1,-1,18,-1,-1,-1,-1],"split_conditions":[1E0,7.7838147E-1,3.2658112E0,-1.3487075E-2,-7.083727E-2,7.850306E-1,3E0,1E0,2.172718E0,-8.297709E-2,6.8507934E-1,1.1559738E-1,2.8646234E-2,6.652496E-2,8.99958E-1,4.8564337E-2,-3.5042632E-2,-1.0458836E-2,-5.071158E-2],"split_indices":[3,0,1,0,0,0,3,2,1,0,0,0,0,0,0,0,0,0,0],"split_type":[0,0,0,0,0,0,0,0,0,0,0,0,0,0,0,0,0,0,0],"sum_hessian":[1.1737556E1,2.202297E0,9.535259E0,1.1684942E0,1.0338026E0,6.1624312E0,3.3728282E0,2.2884796E0,3.8739517E0,1.0021285E0,2.3706996E0,1.1128803E0,1.1755991E0,1.3205938E0,2.5533578E0,1.0388876E0,1.331812E0,1.2186368E0,1.3347211E0],"tree_param":{"num_deleted":"0","num_feature":"5","num_nodes":"19","size_leaf_vector":"1"}},{"base_weights":[-6.685104E-4,-5.9439756E-2,1.6735761E-1,5.3558744E-2,-1.1014004E-1,7.333012E-2,4.351723E-4,3.507215E-2,-1.8856077E-1,-3.5462506E-2,-7.981129E-2,-5.1352713E-2,4.253599E-2],"categories":[],"categories_nodes":[],"categories_segments":[],"categories_sizes":[],"default_left":[0,0,0,0,0,0,0,0,0,0,0,0,0],"id":42,"left_children":[1,3,5,-1,7,-1,-1,-1,9,11,-1,-1,-1],"loss_changes":[1.3388397E-1,1.40749E-1,4.4584826E-2,0E0,1.8036488E-1,0E0,0E0,0E0,7.349938E-2,1.08539E-1,0E0,0E0,0E0],"parents":[2147483647,0,0,1,1,2,2,4,4,8,8,9,9],"right_children":[2,4,6,-1,8,-1,-1,-1,10,12,-1,-1,-1],"split_conditions":[4E0,1.7951393E0,3.5900009E0,5.3558744E-2,6.1098605E-1,7.333012E-2,4.351723E-4,3.507215E-2,2.4876273E0,2E0,-7.981129E-2,-5.1352713E-2,4.253599E-2],"split_indices":[3,1,1,0,0,0,0,0,1,3,0,0,0],"split_type":[0,0,0,0,0,0,0,0,0,0,0,0,0],"sum_hessian":[1.1550375E1,9.036044E0,2.5143306E0,1.1442204E0,7.8918242E0,1.3935883E0,1.1207423E0,1.9000231E0,5.9918013E0,2.5031552E0,3.4886458E0,1.4370916E0,1.0660635E0],"tree_param":{"num_deleted":"0","num_feature":"5","num_nodes":"13","size_leaf_vector":"1"}},{"base_weights":[5.411165E-3,8.920955E-2,-1.0921446E-1,1.9744295E-1,-1.1756777E-1,3.242886E-2,-1.8006192E-1,-4.721389E-3,7.8536086E-2,-6.0238294E-2,7.303704E-3,-2.5299558E-1,1.1154786E-2,-1.4553765E-2,-9.988072E-2],"categories":[],"categories_nodes":[],"categories_segments":[],"categories_sizes":[],"default_left":[0,0,0,0,0,0,0,0,0,0,0,0,0,0,0],"id":43,"left_children":[1,3,5,7,9,-1,11,-1,-1,-1,-1,13,-1,-1,-1],"loss_changes":[1.288832E-1,1.9588995E-1,1.0703275E-1,7.871054E-2,4.3601997E-2,0E0,8.331351E-2,0E0,0E0,0E0,0E0,4.3026686E-2,0E0,0E0,0E0],"parents":[2147483647,0,0,1,1,2,2,3,3,4,4,6,6,11,11],"right_children":[2,4,6,8,10,-1,12,-1,-1,-1,-1,14,-1,-1,-1],"split_conditions":[7.9544646E-1,3.5330713E0,1.7794107E0,1E0,4E0,3.242886E-2,4E0,-4.721389E-3,7.8536086E-2,-6.0238294E-2,7.303704E-3,1E0,1.1154786E-2,-1.4553765E-2,-9.988072E-2],"split_indices":[0,1,1,3,3,0,3,0,0,0,0,4,0,0,0],"split_type":[0,0,0,0,0,0,0,0,0,0,0,0,0,0,0],"sum_hessian":[1.1403408E1,6.715613E0,4.687795E0,4.437852E0,2.2777612E0,1.0232909E0,3.664504E0,1.2040547E0,3.2337968E0,1.174221E0,1.1035403E0,2.6202602E0,1.0442439E0,1.1880771E0,1.4321831E0],"tree_param":{"num_deleted":"0","num_feature":"5","num_nodes":"15","size_leaf_vector":"1"}},{"base_weights":[-2.672254E-4,8.505826E-2,-1.2328356E-1,1.8334827E-1,-9.312629E-2,2.872591E-2,-2.045424E-1,6.7618266E-2,8.5227706E-2,-6.258445E-2,1.8506883E-2,-8.635647E-2,-1.1206951E-2,5.8375053E-2,-2.0754898E-2],"categories":[],"categories_nodes":[],"categories_segments":[],"categories_sizes":[],"default_left":[0,0,0,0,0,0,0,0,0,0,0,0,0,0,0],"id":44,"left_children":[1,3,5,7,9,-1,11,13,-1,-1,-1,-1,-1,-1,-1],"loss_changes":[1.3927841E-1,1.5432405E-1,1.1629325E-1,4.3603316E-2,7.4539095E-2,0E0,4.8889652E-2,7.980482E-2,0E0,0E0,0E0,0E0,0E0,0E0,0E0],"parents":[2147483647,0,0,1,1,2,2,3,3,4,4,6,6,7,7],"right_children":[2,4,6,8,10,-1,12,14,-1,-1,-1,-1,-1,-1,-1],"split_conditions":[3.068395E0,8.918265E-1,5.507358E-1,2E0,3E0,2.872591E-2,4E0,2.1276648E0,8.5227706E-2,-6.258445E-2,1.8506883E-2,-8.635647E-2,-1.1206951E-2,5.8375053E-2,-2.0754898E-2],"split_indices":[1,0,0,3,3,0,3,1,0,0,0,0,0,0,0],"split_type":[0,0,0,0,0,0,0,0,0,0,0,0,0,0,0],"sum_hessian":[1.1270092E1,6.836666E0,4.4334254E0,4.3874726E0,2.4491937E0,1.1514024E0,3.2820232E0,2.8196177E0,1.5678545E0,1.2037361E0,1.2454578E0,1.7087495E0,1.5732737E0,1.2433157E0,1.5763022E0],"tree_param":{"num_deleted":"0","num_feature":"5","num_nodes":"15","size_leaf_vector":"1"}},{"base_weights":[6.5569096E-4,-1.1621436E-1,8.185387E-2,1.2455686E-2,-9.003334E-2,7.3648065E-2,-4.3553445E-3,7.8848876E-2,-1.5397188E-1,6.2392768E-2,-1.7150183E-1,7.393088E-3,-7.6491676E-2,1.1366148E-3,-8.1169516E-2],"categories":[],"categories_nodes":[],"categories_segments":[],"categories_sizes":[],"default_left":[0,0,0,0,0,0,0,0,0,0,0,0,0,0,0],"id":45,"left_children":[1,3,5,7,-1,-1,9,-1,11,-1,13,-1,-1,-1,-1],"loss_changes":[1.24428846E-1,1.3098343E-1,1.1014697E-1,2.1231355E-1,0E0,0E0,2.502682E-1,0E0,6.23509E-2,0E0,6.929328E-2,0E0,0E0,0E0,0E0],"parents":[2147483647,0,0,1,1,2,2,3,3,6,6,8,8,10,10],"right_children":[2,4,6,8,-1,-1,10,-1,12,-1,14,-1,-1,-1,-1],"split_conditions":[2E0,2.777051E0,6.8154114E-1,7.28035E-1,-9.003334E-2,7.3648065E-2,2.7598255E0,7.8848876E-2,1.8092488E0,6.2392768E-2,7.32799E-1,7.393088E-3,-7.6491676E-2,1.1366148E-3,-8.1169516E-2],"split_indices":[3,1,0,0,0,0,1,0,1,0,0,0,0,0,0],"split_type":[0,0,0,0,0,0,0,0,0,0,0,0,0,0,0],"sum_hessian":[1.110966E1,4.3776226E0,6.7320375E0,3.1240416E0,1.2535812E0,1.6853359E0,5.0467014E0,1.0161304E0,2.107911E0,2.1152995E0,2.931402E0,1.0344782E0,1.073433E0,1.4057348E0,1.5256672E0],"tree_param":{"num_deleted":"0","num_feature":"5","num_nodes":"15","size_leaf_vector":"1"}},{"base_weights":[-1.6546656E-3,-1.607633E-1,4.766324E-2,-1.4184198E-2,-5.8019843E-2,9.999484E-2,-4.6477888E-2,7.230551E-2,-1.3445398E-2,7.012816E-2,-1.3683441E-1,-8.3716966E-2,3.501211E-2],"categories":[],"categories_nodes":[],"categories_segments":[],"categories_sizes":[],"default_left":[0,0,0,0,0,0,0,0,0,0,0,0,0],"id":46,"left_children":[1,3,5,-1,-1,7,-1,-1,9,-1,11,-1,-1],"loss_changes":[1.008979E-1,2.1155924E-3,1.1983139E-1,0E0,0E0,1.3808629E-1,0E0,0E0,2.0336564E-1,0E0,1.9045742E-1,0E0,0E0],"parents":[2147483647,0,0,1,1,2,2,5,5,8,8,10,10],"right_children":[2,4,6,-1,-1,8,-1,-1,10,-1,12,-1,-1],"split_conditions":[1E0,7.77089E-1,3.6585875E0,-1.4184198E-2,-5.8019843E-2,7.194857E-1,-4.6477888E-2,7.230551E-2,2.172718E0,7.012816E-2,4E0,-8.3716966E-2,3.501211E-2],"split_indices":[3,0,1,0,0,0,0,0,1,0,3,0,0],"split_type":[0,0,0,0,0,0,0,0,0,0,0,0,0],"sum_hessian":[1.0881807E1,2.0401556E0,8.841651E0,1.0026069E0,1.0375488E0,7.4290457E0,1.4126058E0,2.8105164E0,4.6185293E0,1.2399096E0,3.3786194E0,2.1000035E0,1.278616E0],"tree_param":{"num_deleted":"0","num_feature":"5","num_nodes":"13","size_leaf_vector":"1"}},{"base_weights":[-3.2651208E-3,-8.356256E-2,1.0992545E-1,4.064333E-2,-2.3511174E-1,1.7522877E-1,-1.7253958E-2,7.595339E-2,-1.3398331E-1,-1.6290259E-2,-9.199139E-2,8.858848E-2,-2.6616752E-3,1.1789283E-2,-7.232441E-2],"categories":[],"categories_nodes":[],"categories_segments":[],"categories_sizes":[],"default_left":[0,0,0,0,0,0,0,0,0,0,0,0,0,0,0],"id":47,"left_children":[1,3,5,7,9,11,-1,-1,13,-1,-1,-1,-1,-1,-1],"loss_changes":[1.1574205E-1,1.4934775E-1,6.799954E-2,2.1704611E-1,2.8516293E-2,9.232001E-2,0E0,0E0,7.18759E-2,0E0,0E0,0E0,0E0,0E0,0E0],"parents":[2147483647,0,0,1,1,2,2,3,3,4,4,5,5,8,8],"right_children":[2,4,6,8,10,12,-1,-1,14,-1,-1,-1,-1,-1,-1],"split_conditions":[3E0,2.777051E0,9.037201E-1,7.9544646E-1,1E0,3.5330713E0,-1.7253958E-2,7.595339E-2,1.8244181E0,-1.6290259E-2,-9.199139E-2,8.858848E-2,-2.6616752E-3,1.1789283E-2,-7.232441E-2],"split_indices":[3,1,0,0,4,1,0,0,1,0,0,0,0,0,0],"split_type":[0,0,0,0,0,0,0,0,0,0,0,0,0,0,0],"sum_hessian":[1.0723779E1,6.426541E0,4.2972374E0,3.9340813E0,2.4924595E0,3.0580366E0,1.2392008E0,1.5715522E0,2.362529E0,1.2051469E0,1.2873127E0,1.4853468E0,1.5726898E0,1.1442466E0,1.2182826E0],"tree_param":{"num_deleted":"0","num_feature":"5","num_nodes":"15","size_leaf_vector":"1"}},{"base_weights":[-4.3223156E-3,1.0869682E-1,-7.7400126E-2,2.0116997E-1,-3.3638768E-2,3.990753E-3,-7.660866E-2,7.779298E-2,2.0862589E-2,-6.2981926E-2,1.2051755E-1,6.1251085E-2,-2.7606461E-2],"categories":[],"categories_nodes":[],"categories_segments":[],"categories_sizes":[],"default_left":[0,0,0,0,0,0,0,0,0,0,0,0,0],"id":48,"left_children":[1,3,5,7,-1,9,-1,-1,-1,-1,11,-1,-1],"loss_changes":[1.0387035E-1,1.2372961E-1,1.1114794E-1,1.1430591E-2,0E0,1.799032E-1,0E0,0E0,0E0,0E0,1.0146591E-1,0E0,0E0],"parents":[2147483647,0,0,1,1,2,2,3,3,5,5,10,10],"right_children":[2,4,6,8,-1,10,-1,-1,-1,-1,12,-1,-1],"split_conditions":[2.5868113E0,9.4385207E-1,7.9842144E-1,1E0,-3.3638768E-2,2E0,-7.660866E-2,7.779298E-2,2.0862589E-2,-6.2981926E-2,3.801625E0,6.1251085E-2,-2.7606461E-2],"split_indices":[1,0,0,